68 128
21 0.013552318 -0.10601211 0.053163823 -0.19791651 -0.0034191587 0.10567169 0.14186005 0.035454564 -0.116335884 0.102574624 -0.13841993 0.15726443 -0.08228867 0.18541366 0.09883749 -0.14549214 -0.23984762 -0.1806304 -0.124257825 0.1819245 0.035622716 -0.086784296 -0.017675625 0.3223551 0.22380944 -0.18039304 -0.19797687 -0.0784202 -0.18654494 -0.314352 -0.015811954 -0.1324446 -0.055485312 -0.09185815 -0.12288783 -0.034551665 0.04656744 -0.030163487 0.14807977 -0.022138 -0.048047245 0.05891072 0.16462216 0.047825262 0.16673732 0.20153399 0.1320206 0.04666649 -0.27389032 0.14403726 0.3582135 0.048813954 0.16855437 -0.21388091 0.0916285 0.24161114 -0.29014802 -0.20743105 -0.1001075 -0.29012507 -0.0044580735 -0.3949652 0.22157961 0.034159653 0.06268049 -0.10511885 -0.10670412 -0.082369916 0.23565225 -0.06649021 -0.120434605 -0.32900885 0.33439875 -0.24117841 0.024466597 -0.29748634 0.022003746 -0.030617038 -0.14476323 -0.18455037 0.24988857 -0.19031511 -0.2327132 -0.3873869 -0.04393097 0.02289943 0.32051298 0.048265934 0.10153457 0.33678094 0.15923321 0.23175481 -0.05751262 0.42578393 -0.17419869 0.41855633 0.057463143 0.17539212 -0.21294838 -0.07713787 0.019812059 0.09352102 0.007262065 0.034060784 -0.06754856 -0.023856146 -0.14439827 -0.051761087 -0.03728901 0.2974125 -0.099908166 0.152976 -0.014119903 -0.201 -0.2035893 0.27674183 -0.047437586 0.27307296 -0.33745557 0.3450042 -0.18005341 0.097003356 -0.036261506 0.104916364 0.15697469 0.09203852 -0.17308663 0.09845982
47 0.0032410435 -0.13424166 0.028205475 -0.14739965 -0.085337766 0.13826439 0.16432738 0.1166543 -0.032057263 0.057641573 -0.250763 0.117234856 -0.05983951 0.15166773 0.043586653 -0.12428482 -0.16958298 -0.16240865 -0.17223354 0.21642876 0.020048285 -0.08443216 -0.011111875 0.37589315 0.2993462 -0.2309992 -0.19741812 -0.09749382 -0.18931408 -0.32336998 0.0053628935 -0.16640833 -0.05938623 -0.06685633 -0.112965606 0.0032729013 -0.0036517892 0.005992685 0.15492639 -0.052520428 -0.030003076 -0.005710796 0.2048563 0.08611382 0.14891993 0.10768792 0.096374825 0.117613345 -0.20714135 0.1770476 0.23996846 0.021741893 0.1401509 -0.23025739 0.061481852 0.1990665 -0.27630582 -0.24644028 -0.124414034 -0.2922308 -0.023505662 -0.40608191 0.16029495 0.027042178 0.077307604 -0.1296089 -0.11189831 -0.055962283 0.20842989 -0.02735091 -0.12815602 -0.2761641 0.3073992 -0.23470251 0.034133326 -0.27141082 0.035628118 -0.10897438 -0.10869546 -0.15512784 0.2558449 -0.21101545 -0.21855773 -0.27623513 -0.039537113 -0.015878992 0.288489 0.014168835 0.060680695 0.32518175 0.21775897 0.17034855 -0.07861085 0.43597597 -0.16574977 0.39894453 0.14906085 0.15255256 -0.17688155 -0.011129155 0.012830271 0.05661813 -0.026158664 0.09544984 -0.01630987 0.0027484044 -0.14307517 -0.06273432 -0.06553608 0.39144167 -0.13607894 0.15365124 -0.023083596 -0.2182 -0.21191008 0.1955211 -0.075940244 0.27037248 -0.36832696 0.28440177 -0.19558361 0.14304718 -0.0060016126 0.13023181 0.23406142 0.11330911 -0.18061294 0.054230258
16 -0.002159953 -0.13808861 0.09548885 -0.21872185 -0.10720765 0.10096665 0.25344834 0.05266349 -0.015480145 0.097120784 -0.28235924 0.14094387 -0.12203669 0.18146002 0.007671445 -0.08851411 -0.14352871 -0.1958203 -0.18087521 0.20526066 0.030895209 -0.012581301 -0.012685587 0.34990156 0.26509225 -0.29993883 -0.20022535 -0.0424686 -0.15293682 -0.30906454 0.015300552 -0.16117413 -0.09960578 -0.13470453 -0.14237341 0.0051909937 0.046723187 -0.021712698 0.11622926 -0.09683356 -0.023250591 0.055727687 0.2908043 0.03959273 0.13543232 0.20777503 0.16802482 0.07283541 -0.21931389 0.13629106 0.30621615 0.081904136 0.13639043 -0.19687988 0.017765796 0.18668199 -0.25996795 -0.17652845 -0.13586885 -0.2754984 -0.03162571 -0.42138025 0.23034263 0.04065026 0.049280915 -0.09751733 -0.11562543 -0.08079043 0.258949 -0.11609608 -0.119623385 -0.23624812 0.30218905 -0.2004653 0.052961156 -0.241721 0.09663524 -0.017249972 -0.12780778 -0.12016059 0.22728235 -0.17534415 -0.22088316 -0.30607578 -0.05072924 0.02734666 0.28593248 0.041749075 0.07499016 0.28502053 0.1265456 0.19947104 -0.05274863 0.36041418 -0.16217119 0.38651702 0.057985123 0.12933275 -0.19685672 -0.040755346 -0.032614134 0.07688649 0.03474612 0.019150916 -0.08152482 -0.051234853 -0.10944607 0.020605983 -0.062073123 0.29704228 -0.112550445 0.16324039 -0.015906673 -0.14271717 -0.17382568 0.23889743 -0.038937762 0.2503299 -0.3626851 0.2841643 -0.17522736 0.08544673 -0.017261416 0.070224635 0.19722712 0.10679044 -0.24126585 0.096179724
19 0.08852471 -0.086754076 0.098973446 -0.2367092 -0.12411772 0.04616561 0.27701885 0.028196992 -0.11203716 0.12230141 -0.14738207 0.14390612 -0.0926853 0.21360628 -0.008518405 -0.07132207 -0.22549734 -0.21517299 -0.16363803 0.2522035 0.05098173 -0.017403275 -0.058255184 0.35419276 0.23061484 -0.23005015 -0.19123277 -0.046926394 -0.19264503 -0.28817314 0.06123128 -0.18854041 -0.008796689 -0.13260521 -0.20817958 -0.05465821 0.0036277603 0.029965455 0.12717065 -0.04718055 0.007479126 -0.008714077 0.18231824 0.048900153 0.16130875 0.15532863 0.11412388 0.050866675 -0.30925468 0.118879534 0.29504833 0.05296309 0.10736144 -0.30402684 0.19200005 0.2277363 -0.304836 -0.17255278 -0.050957832 -0.20901448 -0.014726932 -0.35855868 0.24917804 0.03415588 0.053758107 -0.14454761 -0.07610225 -0.053303618 0.22643559 -0.097120896 -0.10063425 -0.3211249 0.33721638 -0.256884 -0.06057392 -0.30644923 0.092193075 -0.029794032 -0.11597027 -0.16298524 0.21686752 -0.16769338 -0.17148517 -0.3405118 -0.07278452 0.047983076 0.30921376 0.0862981 0.15746361 0.27581617 0.15166107 0.20568092 -0.0045281183 0.45012897 -0.12779577 0.3897624 0.04397548 0.15378217 -0.21325204 -0.05682902 -0.018911248 0.10279445 0.043311756 0.058942046 -0.06466186 0.03919864 -0.17539312 -0.08649422 -0.01474143 0.2770857 -0.16548243 0.10493224 -0.076960385 -0.29031035 -0.20874062 0.2524724 -0.09193313 0.27908236 -0.2357949 0.357232 -0.18982393 0.08512811 0.017200062 0.12035555 0.1509337 0.13689688 -0.17928432 0.14018537
23 0.036115415 -0.10789303 0.13426791 -0.21701036 -0.14708774 0.044788744 0.26830012 0.045112673 -0.0053927097 0.15217517 -0.21998781 0.117470846 -0.110057846 0.1557816 -0.0149287945 -0.02896928 -0.17222962 -0.20200393 -0.107822046 0.21900104 0.047208674 -0.0038037146 -0.0058769123 0.36867058 0.27411932 -0.2740065 -0.16281886 -0.033876207 -0.17483684 -0.27323022 0.05562574 -0.17835444 -0.07482208 -0.12125423 -0.18402769 -0.03712995 0.03915202 -0.0118513685 0.06879588 -0.0490486 -0.03605431 0.027029863 0.24319622 0.059541598 0.16052762 0.15737297 0.12771535 0.04787535 -0.21706538 0.115005076 0.25259006 0.069703504 0.1356535 -0.23453726 0.035472427 0.15968582 -0.2350262 -0.100600876 -0.070982456 -0.17102793 -0.021425322 -0.33028764 0.22302298 0.06925385 0.06676165 -0.12782036 -0.054374304 -0.038574077 0.2264476 -0.10013618 -0.043445542 -0.22252123 0.3128385 -0.1886196 -0.04937278 -0.2658928 0.1267456 0.009027961 -0.11678699 -0.100119404 0.17270608 -0.15551618 -0.1657878 -0.31982633 -0.096636824 0.042100884 0.24090126 0.08938417 0.10029444 0.20779552 0.15325247 0.2053092 -0.04326607 0.36767834 -0.15696667 0.33110228 0.048836466 0.15130092 -0.21109597 -0.04297771 0.03784281 0.10854135 0.051087406 -0.026169498 -0.04008667 -0.009538785 -0.13287391 -0.059998356 -0.04967422 0.27349377 -0.17313224 0.0970856 -0.082075745 -0.25464815 -0.21084525 0.26655066 -0.07162104 0.2759695 -0.2482519 0.333288 -0.18308346 0.074686676 0.008725433 0.051286023 0.15360874 0.110346794 -0.17087361 0.11220831
46 0.006753647 -0.15206413 0.17353697 -0.2239139 -0.10726831 0.023373261 0.2719803 0.007721803 -0.100321926 0.14781046 -0.11305048 0.1394593 -0.051243037 0.13592854 0.04711599 -0.14449722 -0.32010037 -0.2253656 -0.1636973 0.19081856 0.10190975 -0.06798364 -0.0037833177 0.34594354 0.2054828 -0.114846185 -0.20464697 -0.08982336 -0.19124009 -0.32216594 0.006907983 -0.102422595 0.01256479 -0.05029524 -0.14660665 -0.077600874 -0.016685624 -0.024825374 0.11072733 0.008533885 -0.03620311 -0.041541316 0.109755635 0.0624272 0.15057576 0.103103876 0.06473809 0.082916476 -0.2596305 0.11890936 0.30731028 0.01773712 0.093168125 -0.22938833 0.078646824 0.2440118 -0.25413403 -0.11931482 -0.05971366 -0.2110288 -0.02350467 -0.29884627 0.1912357 0.022324886 0.06040576 -0.14883734 -0.021078905 -0.087711975 0.23703386 0.015446507 -0.115195565 -0.28898364 0.3426558 -0.1641545 0.009665065 -0.3099239 0.006790186 -0.0476689 -0.16386656 -0.17209914 0.23373559 -0.16792183 -0.20879117 -0.41018817 -0.09729883 0.0062280274 0.23597778 0.06084556 0.11794779 0.30337355 0.1904464 0.25276738 -0.03729226 0.36919162 -0.14683078 0.364905 0.08587533 0.2678635 -0.19819947 -0.10174842 0.10033795 0.06403399 0.021022674 0.021423185 -0.009431058 -0.015678503 -0.17764503 -0.14787984 -0.029195169 0.2654761 -0.18095204 0.096935645 -0.043817535 -0.2626123 -0.29121944 0.23153076 -0.102039196 0.33168495 -0.25709474 0.3746015 -0.23408705 0.08887175 0.036362443 0.105296545 0.14026886 0.12615766 -0.06472922 0.11139046
61 0.029342974 -0.22991867 0.08898104 -0.22191781 -0.058314826 0.07512082 0.25431138 0.041061897 -0.0709386 0.094957225 -0.2260619 0.13334544 -0.040905826 0.14789023 0.044196416 -0.16899572 -0.22864099 -0.16922997 -0.18067668 0.17908414 0.0772012 -0.024862867 -0.014460211 0.37064356 0.21508338 -0.23704544 -0.2357203 -0.09402525 -0.1878367 -0.27292922 0.040314935 -0.13563028 -0.03680205 -0.07007992 -0.1599129 -0.014259582 0.023464425 -0.03304084 0.097113736 -0.06878735 -0.047266055 -0.021063436 0.20074363 0.015393723 0.14589587 0.15520668 0.09796167 0.056990247 -0.20686358 0.15534477 0.29157028 0.05246879 0.13968305 -0.18337369 0.02904805 0.19440337 -0.29579744 -0.20954847 -0.098499276 -0.2427107 -0.040963996 -0.40650943 0.24625386 0.0277843 0.056535978 -0.12372949 -0.0988624 -0.11743282 0.2382636 -0.04892171 -0.14961751 -0.2820685 0.29937604 -0.20307063 0.033167407 -0.2936414 0.016931271 -0.06649776 -0.15917242 -0.17766018 0.22466452 -0.1680952 -0.18883203 -0.31485024 -0.034899563 0.0024309743 0.24353616 0.023229213 0.05404406 0.27773994 0.14109837 0.2542474 -0.023989338 0.38204995 -0.1836923 0.36082166 0.08572281 0.21048437 -0.17923202 -0.039069783 0.07973371 0.067011625 0.00706409 0.030039335 -0.034796037 -0.030292151 -0.1357909 -0.06192207 -0.075447224 0.3779522 -0.15424193 0.093690455 -0.010127172 -0.27238005 -0.2621242 0.2589853 -0.044855524 0.3431146 -0.3651596 0.39158806 -0.1906595 0.10841856 0.0066868486 0.12699963 0.1956188 0.15135987 -0.16019222 0.09873655
64 0.04878763 -0.17943566 0.19481936 -0.27753112 -0.18257076 0.058945972 0.26383424 0.0029572074 -0.10215166 0.16530019 -0.22486296 0.12803711 -0.12492532 0.13110125 0.14020742 -0.104561634 -0.31743997 -0.30569854 -0.15252937 0.2601457 0.11037779 -0.03332863 0.002226733 0.41360584 0.28793678 -0.25393766 -0.15259877 -0.095378354 -0.2305316 -0.4081111 0.0040990603 -0.16547827 0.010906827 -0.20362882 -0.17563237 -0.064546764 -0.065842554 -0.049153745 0.1492802 -0.038599934 -0.02018075 0.033930358 0.14348945 0.01986702 0.23104973 0.14740281 0.13080803 0.06888582 -0.3944581 0.23377554 0.40288088 0.09599333 0.09715469 -0.29135793 0.19340059 0.26138586 -0.37672168 -0.18372865 -0.050027434 -0.23218305 -0.029932283 -0.4360108 0.27281368 0.024661744 0.01639319 -0.1058882 -0.10386544 -0.072874576 0.19652848 -0.06917302 -0.073663004 -0.29315388 0.32093576 -0.29375634 -0.012981487 -0.3535214 0.09198989 -0.06989852 -0.104707964 -0.11391835 0.0959777 -0.13691248 -0.11560001 -0.25431493 0.013238035 0.09497613 0.27006683 0.08721178 0.19272405 0.27776125 0.13272911 0.12362496 0.031420097 0.45469067 -0.1089001 0.30591026 0.05936488 0.22384281 -0.20640177 0.015642343 0.059619278 0.13091892 0.034112964 0.04388751 0.0044156783 0.07834668 -0.07593197 -0.035282526 -0.05564179 0.32971182 -0.16429637 0.016811548 -0.09421 -0.24480236 -0.16178496 0.20869978 -0.056301974 0.24365467 -0.21799693 0.3193236 -0.19340783 0.09648861 -0.07080718 0.15010351 0.18282767 0.13938075 -0.18956375 0.081103146
15 0.009206647 -0.16986865 0.103224844 -0.2889084 -0.10603953 0.044961296 0.2890515 0.03902237 -0.015488583 0.09214855 -0.20472866 0.16560568 -0.07465773 0.18671331 0.030573685 -0.1297083 -0.2570532 -0.23802349 -0.1734033 0.27672106 0.12200451 -0.045608044 -0.0029874747 0.3399269 0.21666701 -0.23946658 -0.22464761 -0.011597046 -0.15497905 -0.34914514 0.04284379 -0.13591315 -0.03897786 -0.055266168 -0.17894192 -0.022226801 0.03624572 0.038394257 0.14080824 -0.01957199 -0.05509877 0.032418467 0.19205469 0.07562145 0.1541706 0.18158214 0.113053404 0.05521229 -0.25629264 0.13092132 0.24465662 0.042885546 0.14250289 -0.22592548 0.062889315 0.13649057 -0.2865591 -0.21130349 -0.090114094 -0.25581086 0.02323774 -0.37363246 0.22336839 0.07975651 0.058158364 -0.14913042 -0.12778872 -0.098107316 0.33802882 -0.068965696 -0.113524936 -0.29409096 0.3540432 -0.27541304 -0.027782166 -0.31423306 0.101485774 0.013511773 -0.18454465 -0.1551623 0.20013002 -0.16485475 -0.23061791 -0.34521627 -0.079509676 0.041888326 0.27935538 0.023453249 0.059181247 0.27713984 0.18142872 0.2599334 -0.069881774 0.40127075 -0.18211338 0.3980188 0.0736039 0.18494034 -0.20948857 -0.08121247 0.080649614 0.08424096 -0.012537223 -0.017343778 -0.03304287 -0.07430393 -0.10846966 -0.057441194 -0.089755654 0.31823313 -0.092646845 0.11460157 -0.030172843 -0.22860163 -0.2052813 0.29918736 -0.049164113 0.33725703 -0.381815 0.3853563 -0.20173948 0.10560408 0.0031969473 0.15480596 0.17224565 0.1261919 -0.17997928 0.120968886
66 0.022638183 -0.16648875 0.09203856 -0.2342103 -0.1662646 0.079154596 0.32353416 0.08609024 -0.01092017 0.13043532 -0.24133924 0.13491735 -0.066595316 0.167639 0.017838705 -0.12523451 -0.16651814 -0.18580385 -0.16707142 0.19941871 0.025631893 -0.06564795 -0.043046832 0.4040891 0.31936628 -0.23278442 -0.1640362 -0.08300075 -0.17601226 -0.29481438 0.020889059 -0.14017762 0.005572335 -0.111188956 -0.13519472 -0.05006789 -0.06359915 -0.012706825 0.14913917 -0.004695388 -0.03639536 0.025801059 0.14719665 0.052084807 0.15991998 0.14360489 0.09196736 0.1242572 -0.2661264 0.17926188 0.25328955 0.0669961 0.11550184 -0.21989338 0.084214725 0.20676664 -0.2998324 -0.18628989 -0.06711716 -0.24841878 -0.0087172 -0.40255237 0.18755409 0.0146885235 0.046823647 -0.125714 -0.06962192 -0.023464782 0.17225961 -0.014746984 -0.11212855 -0.26576117 0.28326315 -0.19868374 0.022227015 -0.27028355 0.054095145 -0.115389094 -0.0970724 -0.17515352 0.21500176 -0.1854404 -0.1455758 -0.3105414 -0.043760348 -0.011721526 0.24049042 0.0753872 0.086368926 0.30877063 0.20791702 0.13403094 -0.041200016 0.4393464 -0.112008 0.3609129 0.12763126 0.11963034 -0.17340483 0.013644918 0.018659458 0.047748066 -0.012387745 0.08522237 0.017933976 0.045583107 -0.10352209 -0.0914333 -0.059314385 0.30736315 -0.15427086 0.12459385 -0.03831598 -0.18779677 -0.18935555 0.1286215 -0.057563283 0.20036295 -0.2503241 0.20754051 -0.1943698 0.11316561 0.0142625505 0.07302331 0.20839489 0.083935045 -0.18054503 0.035030223
40 0.122821644 -0.19823386 -0.047262404 -0.094918035 0.07972385 -0.09733744 0.06698332 -0.029903466 0.15859377 -0.0221734 -0.2378078 0.08585948 -0.02908293 -0.07397304 0.27016774 -0.21346729 -0.3265785 -0.19512373 -0.10043149 0.10752882 0.22854602 -0.09453394 0.062721536 0.010964619 -0.054890655 0.1328986 0.0035075885 -0.15179677 -0.07969915 -0.33433124 -0.13410476 0.08200981 -0.07409922 -0.061023086 0.09695854 -0.012545835 -0.004660902 0.059582975 0.17527044 0.26853144 -0.019934729 0.1352535 -0.21077752 0.044635825 -0.0044840965 0.32409787 -0.06913895 0.07883813 0.04618851 -0.091078795 -0.14620768 0.07916264 0.07244542 0.12235838 0.1505325 -0.24784547 -0.039312195 0.025948122 0.009290894 -0.33397532 0.28184706 -0.15173087 0.1353185 0.154498 -0.15180905 -0.17187946 0.01124925 -0.20952928 0.37426445 0.10447949 -0.15224886 0.12488319 0.08368501 -0.01740673 0.3742636 -0.07984549 -0.2046824 0.031262513 -0.16793337 -0.07265336 0.07931597 -0.01765711 -0.11111013 -0.44397557 -0.38384727 -0.038317844 0.05929613 -0.037330594 -0.0988558 -0.061201572 0.3741759 0.06801669 -0.047647238 -0.11821567 -0.0045847977 0.04199003 0.1400117 -0.3819889 0.15180275 -0.096713044 0.028802855 -0.20586918 -0.08029111 0.018603517 -0.028251223 -0.1711978 0.061471563 -0.27471393 0.10644911 -0.39386398 -0.2544486 0.099363044 -0.048736412 0.19885713 -0.20623538 0.03301767 -0.11836188 0.05965045 0.13932316 -0.1943865 -0.2406026 -0.12755486 0.13974422 -0.23803772 -0.02761399 -0.030403722 0.22601849 -0.10028904
56 0.11812664 -0.2525733 -0.25154155 -0.17875502 0.23153284 0.17842698 0.21187943 -0.0065860297 -0.2291385 0.061187584 0.21610788 0.2747023 -0.012113474 0.17843893 0.010363452 -0.064699136 -0.06401696 0.15323964 0.16055077 -0.11256224 -0.324453 -0.052740548 -0.24867465 0.19780973 0.08862194 -0.029203776 -0.101074204 -0.1549348 -0.11968219 0.10815247 -0.035914138 -0.009797643 -0.14699022 0.0008522178 -0.28686967 0.046419624 0.28312245 0.20983218 0.16769516 -0.11075797 -0.0556138 -0.10162514 0.39508465 -0.06612206 -0.37168467 0.098380834 -0.063281454 -0.17062047 0.2354971 -0.17400573 -0.25364676 0.31575677 0.22712846 0.16825546 0.09834305 -0.14234687 -0.14708866 -0.45901924 -0.34943238 0.19462633 0.24100558 -0.60371196 0.1618079 0.35802555 -0.20562448 -0.022933787 -0.24518283 -0.13585746 0.2081478 -0.39800906 -0.045852434 0.09628072 -0.018393688 -0.39251775 0.06592422 0.02015494 0.47798595 -0.24482831 -0.06836602 0.2881379 -0.11841952 -0.0690586 -0.14951864 0.072626464 -0.28413266 0.059276093 0.16748562 0.022390809 0.5076216 -0.1695202 0.30594993 -0.2288594 0.414814 0.28309745 0.08366424 0.113102704 -0.020378705 -0.50338787 0.12346734 0.06708853 -0.5468979 -0.10930879 -0.08826619 0.26836643 -0.16394685 0.3324632 -0.07884485 -0.029270023 0.26608407 -0.08328024 -0.28701413 0.06744361 -0.33346602 -0.2644083 -0.20675586 -0.019391336 -0.06463341 0.012459848 0.26560214 0.14520624 -0.12929483 -0.15729189 0.26332638 -0.07647853 0.009475755 0.23609729 0.15526351 0.13207202
18 0.013386795 -0.121480666 -0.0787956 -0.09931303 0.005208772 -0.03299647 0.0059710564 -0.044462502 0.1196426 -0.011899305 -0.062750004 0.06060727 -0.062218226 -0.032889288 0.24562164 -0.21508096 -0.22317883 -0.13870916 -0.092373624 0.07652252 0.16851598 -0.074248925 0.02682497 -0.015257723 -0.035720676 0.15649433 -0.0273512 -0.12368467 -0.05234072 -0.2284073 -0.10284779 0.07839521 -0.09859797 -0.09055717 0.052570604 -0.004095481 0.008870839 0.09217769 0.21617697 0.27152863 -0.0024738382 0.06650358 -0.09476345 0.06308231 -0.026207652 0.2870794 -0.07382422 0.022297228 0.01985999 -0.059494864 -0.100608245 0.12689172 0.091442674 0.14136344 0.026537765 -0.18370101 -0.047301717 0.02641565 -0.00019881771 -0.18369459 0.23544681 -0.09881591 0.06646659 0.17101966 -0.1726728 -0.117168546 -0.015479822 -0.16108079 0.4120887 0.11420419 -0.14223124 0.17477836 0.10023245 -0.08364027 0.34756973 -0.08776813 -0.13406448 -0.016638158 -0.088567875 -0.020418309 0.0498273 0.060805917 -0.12128236 -0.35204583 -0.34380677 -0.052265037 0.05669772 -0.039647043 -0.052142385 -0.022406228 0.37102193 -0.028454112 -0.02359182 -0.11639787 0.027095865 0.007373133 0.1130026 -0.30537483 0.1622467 -0.116774015 -0.02514746 -0.17317742 -0.11595896 0.05636152 0.009744017 -0.11269914 0.019893743 -0.2578876 0.13758835 -0.3619498 -0.26887354 0.12758021 -0.07797598 0.1737894 -0.23305245 0.001203692 -0.12836257 0.017749693 0.15762934 -0.1611559 -0.23626831 -0.080749124 0.17404175 -0.18916795 -0.019715788 0.0076609137 0.22618781 -0.059518367
29 0.12396087 -0.36435288 -0.09203906 -0.19613008 0.1887182 0.2150473 0.29418087 -0.045542974 -0.1916125 0.135849 0.07698275 0.29899618 0.03279994 0.12996548 0.12866688 -0.008313096 -0.15314999 0.10094489 0.15605266 -0.08669255 -0.28316313 -0.04054415 -0.24912244 0.31468305 0.14377075 -0.10341092 -0.11680307 -0.26752433 -0.20329046 -0.021167533 -0.036720872 -0.028212808 -0.103366144 0.09635584 -0.25261533 0.04017689 0.29808345 0.13115911 0.05329541 -0.07301809 -0.1531061 -0.0789096 0.29300416 -0.14345367 -0.32734305 0.08542635 -0.06764136 -0.1750511 0.25561514 -0.17505729 -0.23022826 0.27162108 0.20680955 0.18214071 -0.018645065 -0.16652131 -0.010583328 -0.41940856 -0.3241586 0.15271404 0.24988835 -0.48513258 -0.014261029 0.26301545 -0.17583016 -0.045560043 -0.1573228 -0.20152433 0.12874968 -0.3272672 -0.016193563 0.11725317 -0.08698869 -0.26743197 0.10764003 0.05766113 0.40971255 -0.19621968 -0.19931793 0.31621563 -0.1503945 -0.062519915 -0.19969027 0.09865243 -0.32680172 0.098271914 0.052026972 -0.008663127 0.53017247 -0.25292674 0.36704373 -0.16011727 0.3967033 0.18734536 0.09075478 0.09415885 -0.056064267 -0.5482556 0.11043227 0.07886083 -0.5132867 -0.16115794 -0.06283977 0.2242501 -0.18517879 0.17877363 -0.053231947 -0.06763235 0.23774344 -0.031048173 -0.25387678 0.011917912 -0.31167153 -0.26399946 -0.26152343 -0.039651502 -0.086969435 0.030372601 0.3268159 0.17936033 -0.11952922 -0.13054599 0.2897648 -0.075181656 -0.046671994 0.23687759 0.25832933 0.15546986
22 0.052290622 -0.20503531 -0.070191436 -0.14431922 0.06697249 -0.081083275 -0.061310533 -0.11337356 0.11634662 0.019742206 -0.08293596 0.087831974 -0.0496365 -0.09967946 0.28713116 -0.116879344 -0.30591235 -0.17071885 -0.026776558 0.08052961 0.16660723 -0.06602707 0.08220745 -0.0659664 -0.10547004 0.22007506 0.08130507 -0.18201919 -0.0038454272 -0.38331968 -0.19913921 0.021106113 -0.13020602 -0.0012120137 0.12105431 -0.047657274 -0.0011286612 0.08605311 0.14060517 0.23188654 -0.04691997 0.06929388 -0.108219944 0.13288082 0.029115377 0.25547028 -0.07829932 0.10392843 -0.038323358 -0.047233425 -0.09210586 0.05459061 0.048584078 0.01233039 0.013428944 -0.1228949 0.0006663247 0.06251141 -0.06273289 -0.24815075 0.2733277 -0.110782646 0.02053789 0.16173862 -0.15028992 -0.12797414 0.021306735 -0.15665872 0.42422438 0.13855845 -0.100743584 0.13282976 0.18048394 -0.06623388 0.3894208 -0.09276212 -0.10362251 0.06310673 -0.11888178 -0.02123099 0.02104571 -0.034905028 -0.110051334 -0.4148741 -0.3435437 0.026078114 0.11710375 -0.07575322 0.026600452 0.019696152 0.37880167 0.0016857408 -0.092915215 -0.10737831 0.03535274 0.00980147 0.14398453 -0.21013102 0.09106419 -0.11140445 0.0373361 -0.12777673 -0.0271251 0.06778052 0.03850884 -0.096309274 0.039340965 -0.21262458 0.0703074 -0.28022343 -0.2716178 0.0679187 -0.0756651 0.182187 -0.16176338 0.033039197 -0.12234449 0.0062457765 0.1286955 -0.21324496 -0.23375525 -0.08657882 0.11913616 -0.15858608 0.05045299 -0.0013125833 0.10906814 -0.0643224
5 0.07738577 -0.11172846 -0.03693311 0.00793073 0.040424652 -0.07408452 0.02382921 0.04492351 0.3043286 -0.13074294 -0.26271814 0.05201095 0.008925324 -0.26211995 0.16736804 -0.15355107 -0.1009022 -0.19614685 -0.17748223 0.13658868 0.34840643 0.21789932 -0.0027363717 0.08511951 -0.06647558 -0.025131315 0.017938258 -0.11526976 -0.028331477 -0.3506178 -0.0029203424 -0.17752324 -0.109402165 -0.2730838 0.011174033 -0.059104305 0.07944862 -0.011676348 0.08813972 0.07274442 0.19843754 0.33146986 0.014268129 -0.03994852 0.04297847 0.24531381 0.098836 -0.030147476 0.118798494 -0.08895981 -0.03145751 0.18883741 0.22817719 0.23806357 0.00473339 -0.08517292 0.029960798 0.114381574 0.10132292 -0.1076862 0.037216417 -0.1703835 0.16457044 0.009461621 -0.120542504 -0.0028659152 0.036649834 -0.02776239 0.18624358 -0.11064387 -0.08585262 0.05733171 -0.027859123 0.08930396 0.21372318 -0.023174562 -0.018044787 0.028701134 -0.18580419 -0.15790708 -0.13265656 0.040103745 0.008954104 -0.37107167 -0.22430018 -0.15905258 0.20072548 0.18753102 0.05672159 0.17712885 0.27249485 -0.07821263 0.09521502 -0.12508105 -0.10989779 0.074121006 -0.10225754 -0.3303216 0.09061605 0.08726498 -0.0017980624 0.06076801 -0.031158658 -0.19008629 -0.0026085 0.017954137 0.10724419 -0.21598646 0.028592037 -0.23101829 -0.027900638 0.04890654 0.02789889 0.038901176 -0.14609225 -0.062336553 0.08964975 -0.14673182 0.32334763 -0.099318765 -0.014709955 -0.12421901 0.1876473 -0.37119174 -0.12640749 -0.16216153 0.16009454 0.018929303
49 0.02873583 -0.1938973 -0.07372765 -0.18449081 -0.0027378546 -0.0410649 0.06850497 -0.08964984 0.110035494 0.010974556 -0.0822439 0.06303743 -0.005389719 -0.036298547 0.23986875 -0.2335874 -0.2930302 -0.17113788 -0.096956104 0.10186943 0.17652196 -0.044477995 0.038149897 0.076881126 -0.02374519 0.15897855 -0.06587027 -0.16956048 -0.07272562 -0.31172508 -0.13900763 0.018607894 -0.099707395 -0.032018594 0.03718548 -0.028375529 -0.021906924 0.08463922 0.14353015 0.24340282 -0.06009433 0.029630292 -0.13682084 0.08648335 0.017316919 0.29035953 -0.11014274 0.07752443 -0.013600801 -0.051597994 -0.12286112 0.0786419 0.0952551 0.056182563 -0.04199091 -0.17003515 -0.014814979 0.040007517 0.0034995205 -0.24756862 0.20680957 -0.042085573 0.04701556 0.11204529 -0.12628151 -0.14055139 -0.03136817 -0.18665268 0.4464738 0.16116445 -0.17287423 0.15971948 0.111520566 -0.10484566 0.39298037 -0.09588549 -0.18370402 -0.017379837 -0.10765906 -0.03643294 0.05887385 0.045594297 -0.11119876 -0.40558863 -0.34850055 -0.102248594 0.03898975 -0.08843153 -0.096521355 0.042606182 0.43806916 -0.014881661 -0.098538235 -0.14931779 0.004967332 0.06739943 0.14618397 -0.19026715 0.16950549 -0.16728482 0.061877873 -0.1921341 -0.09765232 0.019344937 0.017531242 -0.08506853 -0.021449577 -0.26988918 0.099020384 -0.3196357 -0.22865763 0.0971881 -0.08543781 0.19694236 -0.2693439 -0.056133483 -0.10400189 -0.031128343 0.18953395 -0.16494033 -0.21852444 -0.037508566 0.15417118 -0.19836593 0.00083145814 -0.004199184 0.2537403 -0.09412597
53 0.12916742 -0.12952761 -0.11284127 0.030280871 0.14351745 -0.12442434 -0.005466935 0.14007737 0.20556232 -0.11252318 -0.26103503 0.02767586 0.050501667 -0.28362152 0.12575413 -0.22160353 -0.1323539 -0.13474235 -0.21261261 0.111395285 0.37747422 0.22336514 0.012862377 0.047489077 -0.14067055 -0.011985948 -0.006693669 -0.08534843 -0.027409604 -0.29967266 0.027461527 -0.21361421 -0.13239862 -0.17324585 0.054883912 -0.05328088 0.12006831 0.07586228 0.08278512 0.085286185 0.20324074 0.2845193 -0.035965774 -0.014607218 0.0015154294 0.18792479 0.06845583 -0.064292066 0.11687838 -0.081171736 -0.08520308 0.14825158 0.26784432 0.26095334 0.057238895 -0.09442857 -0.0647062 0.1264975 0.14334999 -0.11253149 0.030034857 -0.15386704 0.23020609 -0.041776303 -0.07110784 -0.055244897 0.05933781 -0.056761082 0.23385851 -0.13433896 -0.14725979 0.050051197 -0.02972382 0.08972259 0.28514358 0.013522389 -0.047736734 -0.010046746 -0.20116597 -0.24322039 -0.05530748 -0.021940863 0.004544701 -0.4469858 -0.2188209 -0.13025571 0.33009046 0.18845142 0.012084666 0.23095545 0.26097527 -0.054868486 0.06555313 -0.09377325 -0.176537 0.11446864 -0.07711779 -0.31642476 0.10490668 0.075377025 0.058685753 0.052890006 -0.06045815 -0.17911981 -0.021394568 0.020049337 0.0074304403 -0.32317367 0.047100727 -0.30938232 -0.120712474 0.07472039 0.07230973 -0.039155737 -0.112779684 -0.014112005 0.06164646 -0.12439727 0.24151248 -0.15106167 -0.044664204 -0.16127159 0.21440126 -0.46825317 -0.102765806 -0.17468351 0.18574166 -0.087321475
31 0.16824824 -0.269448 -0.18484217 -0.19988881 0.13390312 0.12206077 0.21622029 -0.06291713 -0.13499993 0.05464741 0.08143334 0.27378407 0.07631221 0.15497471 -0.007941058 -0.104794346 -0.1442425 0.11241713 0.09488285 -0.05137202 -0.19128013 0.0026106432 -0.22364533 0.24428485 0.05132573 -0.06142478 -0.12419523 -0.12622313 -0.1539294 0.041015606 -0.00021795713 0.037781883 -0.06090257 0.014701301 -0.29697233 0.054601084 0.16005346 0.15380783 0.029787788 -0.0467041 -0.13292152 -0.08189366 0.23699154 -0.18288143 -0.34834254 0.1656494 -0.091553845 -0.18120015 0.21008673 -0.18422921 -0.3227774 0.3129316 0.17099355 0.13112971 0.079604626 -0.18580617 -0.038675778 -0.36502308 -0.25804487 0.17609663 0.17801505 -0.41943237 0.045170512 0.2230381 -0.19960058 -0.08295268 -0.112887755 -0.12925492 0.08549756 -0.2558335 0.037200134 0.04688822 -0.016472327 -0.26253605 0.06280782 -0.025248231 0.41399387 -0.1913204 -0.07783174 0.23547323 -0.13790603 -0.08341958 -0.17253448 -0.01707798 -0.26483172 0.061050285 0.028790684 0.0036463286 0.40218017 -0.24408132 0.28364637 -0.14967977 0.37085697 0.1989241 0.08787214 0.093092665 -0.10984437 -0.5439508 0.16163939 0.05168849 -0.47729144 -0.15127215 -0.08994651 0.1575855 -0.18254419 0.25155607 -0.020058118 0.069873564 0.19492814 -0.0888693 -0.23785886 -0.025566347 -0.27685088 -0.25110236 -0.18888332 -0.029961664 -0.0048720962 0.004649578 0.21188894 0.12903829 -0.08733621 -0.16494755 0.20156036 -0.11859799 -0.02446599 0.18944632 0.13340007 0.08622222
63 0.08213671 -0.07403257 -0.04101875 0.088362426 0.0073319767 -0.044723034 -0.023477668 0.16089888 0.25937685 -0.14568879 -0.28590447 0.04968623 0.03387865 -0.29005697 0.14529787 -0.21486379 -0.14335747 -0.17834558 -0.30582786 0.15191874 0.3954524 0.20998335 -0.03179179 0.083392 -0.093880266 0.030760858 -0.05747827 -0.09680811 -0.06285782 -0.3808258 0.0547656 -0.19200267 -0.12524778 -0.1996211 0.03888164 -0.049670212 0.12749512 0.06691677 0.13342538 0.100337915 0.23886183 0.27985165 -0.0116686355 -0.0021910488 -0.014270209 0.15132433 0.0946985 -0.07245144 0.110402584 -0.05535902 -0.07676372 0.17153296 0.25159088 0.24646749 0.05338662 -0.05552623 -0.030237846 0.13907653 0.13857912 -0.064003065 -0.0066856137 -0.12560965 0.13898295 -0.029575864 -0.13681632 0.009885328 0.09903925 0.01101482 0.17185156 -0.0834838 -0.11416258 0.11883511 -0.040756363 0.084395096 0.23359609 0.05271441 -0.015133671 -0.06720733 -0.11114222 -0.20838813 -0.014944329 0.030636009 0.010020089 -0.3065309 -0.24086328 -0.15157571 0.28472617 0.23308802 0.060743947 0.14822058 0.26847443 -0.119712725 0.056649894 -0.11198314 -0.14635389 0.054245364 -0.05643803 -0.31315255 0.06891098 0.17725095 0.03843181 0.07641512 -0.05413862 -0.14259999 0.021687819 -0.0125001455 0.06420172 -0.33141142 -0.010497705 -0.26207095 -0.18242937 0.10114143 0.061202683 -0.022435505 -0.15648821 -0.016971597 -0.06186046 -0.06450444 0.21882586 -0.19689928 -0.06912213 -0.16936404 0.2012923 -0.4298839 -0.1099734 -0.16773048 0.22695668 -0.07383438
65 0.11501828 -0.28261745 -0.12526028 -0.19205323 0.08948511 0.17738973 0.33754304 -0.022762168 -0.110915564 0.10359945 0.07823733 0.29053247 0.031522103 0.15947345 0.044316016 -0.14567593 -0.09566111 0.12992322 0.037867505 -0.098489024 -0.23667184 0.0044274717 -0.30164248 0.31231245 0.14634885 -0.11739171 -0.14891928 -0.2575515 -0.17969045 0.07742601 0.07815129 -0.043863617 -0.055492207 -0.020641336 -0.29650292 0.030978825 0.18593897 0.15157057 0.16266726 -0.028625056 -0.033037953 -0.049806323 0.29158747 -0.15242259 -0.3647371 0.095040284 -0.07506899 -0.0978612 0.23337625 -0.20106204 -0.25535113 0.27574033 0.2016625 0.1684837 0.04844938 -0.13695106 -0.05417435 -0.41625005 -0.25162268 0.1677379 0.2227779 -0.46170384 -0.007069638 0.23724192 -0.23248404 0.011457352 -0.08425012 -0.14946349 0.092946075 -0.21935917 -0.02663968 0.09148476 -0.05774334 -0.26791793 0.07044913 0.009681969 0.3506666 -0.30250248 -0.06582709 0.21600235 -0.080337815 -0.040149573 -0.19034152 0.12688631 -0.3025492 0.025860857 0.0111251725 -0.019588262 0.44853786 -0.28169745 0.27892706 -0.16138555 0.3665165 0.17320634 0.14245504 -0.008617388 -0.061215673 -0.55405337 0.14123063 0.043716617 -0.5210376 -0.17793205 -0.039162964 0.27495626 -0.14022516 0.17219177 -0.053229824 -0.01772409 0.21130422 -0.053580657 -0.2634231 0.058924202 -0.21936902 -0.18528025 -0.23529595 -0.09396896 -0.10432571 0.028292686 0.22464328 0.08310855 -0.07293275 -0.10973265 0.2539522 -0.028397541 -0.04494143 0.24864843 0.19130598 0.13148504
50 0.027334243 -0.07678047 0.019254105 0.05143875 0.034336347 -0.07869653 0.12579466 0.19731568 0.27258497 -0.086148895 -0.30214104 0.03279087 -0.054066736 -0.23323824 0.1734356 -0.18367518 -0.09770025 -0.1945549 -0.2812054 0.13322288 0.36750332 0.2076926 0.008878974 0.15687555 -4.370088e-05 -0.04758632 -0.059806358 -0.10373353 -0.06618608 -0.2740292 0.06071317 -0.26850152 -0.20590612 -0.24615367 0.06714917 -0.070607826 0.21660258 0.027875451 0.13025552 0.047316417 0.28268337 0.30847913 0.09403715 0.07047991 0.07935055 0.16584772 0.1632476 -0.040998742 0.11970844 -0.030534368 0.0448861 0.11836922 0.29073116 0.2562683 -0.04945509 -0.04556728 -0.018038793 0.21509326 0.13447447 -0.10412266 0.0008060314 -0.09852713 0.17389484 -0.020237705 -0.03405963 0.047527976 0.019124517 -0.016385224 0.25008672 -0.18564449 -0.14374423 0.121820204 -0.086174875 0.13516027 0.24560273 0.10410147 -0.062270038 -0.00547451 -0.15723401 -0.19581427 -0.009725127 0.07368519 0.025792122 -0.30409646 -0.21034576 -0.19456393 0.28876385 0.2481861 0.007396812 0.25733742 0.22453271 -0.09049026 0.033101596 -0.14884534 -0.19852977 0.12916979 -0.064904295 -0.2507727 0.08453999 0.12525944 0.022340218 0.1239435 -0.025291177 -0.17721425 0.007756195 -0.06443835 0.046052672 -0.33252087 0.014955163 -0.30379024 -0.084723726 0.1566912 0.06857689 0.052181125 -0.16355506 -0.04478445 -0.063147895 -0.10214242 0.26377186 -0.18547173 -0.02564073 -0.12886813 0.19669487 -0.44750196 -0.15954754 -0.18835184 0.26013687 -0.05474178
11 0.12417134 -0.082649305 -0.12556061 0.11699118 0.115571655 -0.04641907 -0.087886915 0.12247312 0.23644124 -0.13759999 -0.26628643 -0.001765816 -0.026195364 -0.30341265 0.23192956 -0.25110686 -0.13943656 -0.1804353 -0.29881757 0.08900239 0.39527157 0.29309 -0.013206684 0.08338699 -0.12382605 -0.06662125 -0.015916225 -0.11576003 -0.0736854 -0.29917133 0.04143965 -0.22862773 -0.15279144 -0.30294517 0.07130592 0.004637719 0.10830499 0.06695835 0.12363582 0.07698667 0.28862703 0.29518637 -0.0016420592 -0.040752567 0.007265939 0.25055262 0.09820129 -0.11775588 0.16810028 -0.06826128 -0.094608635 0.22747198 0.19237019 0.3082158 0.014307423 -0.14775193 -0.027213337 0.12074955 0.14755252 -0.019711358 0.022008821 -0.15507932 0.2182747 0.022600494 -0.12533826 -0.030874299 0.014913836 -0.05791721 0.2548174 -0.14658976 -0.07922356 0.12507448 -0.0256583 0.037096873 0.26761037 -0.023491567 0.017350359 0.012109629 -0.1597651 -0.17671807 -0.082446255 0.06895528 -0.022389403 -0.38507316 -0.26126423 -0.16833287 0.23162489 0.17238803 0.028660387 0.14602521 0.28758395 -0.106149524 0.12535457 -0.070070356 -0.115834765 0.050260115 -0.04810918 -0.33886012 0.07588996 0.10743609 0.037891805 0.03026169 -0.084017135 -0.15531038 -0.03168403 -0.02755296 0.03579141 -0.2485216 0.06558677 -0.3506741 -0.13727225 0.1321709 0.027145853 0.0056946715 -0.12490093 0.026259687 0.026540142 -0.09636748 0.18915394 -0.16629434 -0.09448267 -0.16579899 0.20514257 -0.38684353 -0.082177006 -0.11993841 0.15059952 -0.051007032
10 0.16577335 -0.33641297 -0.09872174 -0.21814068 0.1528497 0.16721334 0.3064882 -0.09783457 -0.18714847 0.13973957 0.12072517 0.30655193 -0.025213618 0.21844468 0.048859954 0.018176699 -0.1252263 0.11589685 0.13950333 -0.029417792 -0.20981693 0.04260407 -0.3140443 0.30407694 0.076471485 -0.1372798 -0.12901263 -0.21217419 -0.21152668 -0.008248221 0.035017245 -0.082572915 -0.13195686 0.017067235 -0.3582112 0.052869145 0.28830856 0.20492096 0.06576584 -0.020984324 -0.11872757 -0.10203715 0.3270392 -0.13999878 -0.3401514 0.20465742 -0.08706195 -0.19192633 0.20536338 -0.28074878 -0.2709619 0.3254003 0.1989936 0.12062778 0.029195886 -0.23573191 -0.017373074 -0.3041095 -0.2709477 0.20667456 0.24215712 -0.3302979 0.02733455 0.23097101 -0.18256068 -0.07658208 -0.1215364 -0.2097208 0.1812424 -0.35208896 0.07431713 0.122336835 -0.009323199 -0.27087718 0.11243982 0.014141025 0.42185056 -0.18025222 -0.15021905 0.28843737 -0.13371293 -0.060178682 -0.20213921 0.01844039 -0.39829382 0.06063361 0.025238685 -0.017207954 0.52693486 -0.29164028 0.35451847 -0.082335316 0.40842703 0.1646892 0.10515093 0.102319054 -0.093379796 -0.47181797 0.12545535 -0.032533113 -0.49349016 -0.12782648 -0.008709041 0.16859853 -0.22121195 0.20028043 -0.10803358 -0.008540176 0.2509818 -0.15832178 -0.2767161 0.008801721 -0.29638323 -0.2567704 -0.18257818 0.014266318 -0.09745723 0.025295394 0.30422843 0.085731596 -0.102927774 -0.1921363 0.2527816 -0.06909242 -0.07982294 0.25654182 0.21789792 0.1471226
55 0.20237549 -0.105532356 -0.19460134 0.10912533 0.17895426 -0.06961249 -0.016300052 0.16108248 0.26630527 -0.14181818 -0.26466802 0.045696884 -4.6649875e-05 -0.27194062 0.19572622 -0.22607265 -0.069899894 -0.11808611 -0.23230852 0.0945377 0.35801774 0.26142776 -0.06681276 0.043524157 -0.118222415 -0.06063109 0.019242993 -0.18284899 -0.05469827 -0.30414894 0.06288638 -0.31158996 -0.16375685 -0.24476089 0.09456121 -0.030879963 0.1600027 0.06233025 0.12783836 0.05911 0.27747566 0.34927848 0.03856407 0.014318695 0.022403948 0.23388551 0.10588455 -0.04791456 0.17598166 -0.11178745 -0.055065796 0.16992494 0.28459415 0.294731 0.04442801 -0.112591945 -0.024619613 0.0835295 0.111704536 -0.14400631 0.10688468 -0.2237711 0.2381707 0.0022835992 -0.074711986 0.011433378 0.025029045 -0.05931703 0.22552685 -0.2007652 -0.12016416 0.07170165 -0.05436267 0.097819254 0.3029177 0.033454657 -0.070988335 0.0029031907 -0.2025633 -0.22409171 -0.051812865 0.00092773663 0.03150756 -0.349856 -0.22516379 -0.16722393 0.31797266 0.16578843 0.033819847 0.1878764 0.2398323 -0.047871225 0.09042903 -0.09930347 -0.15568554 0.0505785 -0.043080606 -0.3602736 0.072566226 0.14049064 0.04075011 0.10044158 -0.017029125 -0.13668849 -0.0410309 0.0037474527 0.035655644 -0.30441645 0.04572145 -0.2763779 -0.102847904 0.1155114 0.0879489 -0.017956255 -0.100106455 0.023502912 0.05264368 -0.10793444 0.26102588 -0.19221716 -0.0064467294 -0.1555017 0.19181456 -0.43560815 -0.10780891 -0.16998795 0.13781293 -0.03670896
13 0.05647721 -0.13882464 -0.060715783 -0.04381462 0.029041031 -0.058242958 -0.016705377 -0.024390277 0.18030438 -0.0025592702 -0.16457365 0.05429275 0.005921724 -0.16664182 0.25670224 -0.23753624 -0.23722005 -0.16119292 -0.17428048 0.07029273 0.24494822 0.057279564 -0.035284553 0.05501884 -0.041997466 0.04130867 0.00069418683 -0.22353768 -0.0785649 -0.38754436 -0.072545975 -0.092785485 -0.052759025 -0.12517364 0.023578476 -0.040730253 -0.0142895905 0.08671531 0.18019746 0.23715217 0.037737284 0.14880076 -0.092958294 -0.0044187256 -0.048609443 0.2443041 -0.06008771 0.028067501 0.038468964 -0.108914085 -0.108660035 0.14935358 0.13794374 0.15870474 0.008249251 -0.14229475 -0.0282197 -0.021174626 0.04285515 -0.18371789 0.20771502 -0.13270162 0.02920356 0.039998956 -0.16580258 -0.09566024 0.0871024 -0.12729542 0.29532334 0.10886857 -0.11098811 0.12858224 0.08376874 -0.033326678 0.3672625 -0.094419084 -0.10170833 -0.046181872 -0.12412112 -0.099442184 0.025949249 -0.017353939 -0.11356022 -0.35181314 -0.31620774 -0.07160999 0.08736588 -0.034806266 0.035890106 0.009716384 0.33256155 -0.0019327356 -0.003360727 -0.11146427 0.013212488 -0.03537814 0.078544214 -0.3666907 0.10950885 -0.060977913 0.015801776 -0.13167505 -0.06287088 0.017296087 -0.02062059 -0.10294204 -0.017132865 -0.23810643 0.11308395 -0.31379804 -0.18556876 0.10253869 0.039259333 0.12091 -0.16817452 -0.0071549504 -0.04705805 -0.033766974 0.15426266 -0.22370586 -0.12678617 -0.07727979 0.1713582 -0.23627861 -0.04501241 -0.012581296 0.17469606 -0.029341819
58 0.18079637 -0.17794089 -0.32165268 -0.21577083 0.16759905 0.10159848 0.24827258 -0.06873142 -0.16548857 0.12022109 0.18002771 0.23786427 0.005646794 0.18414159 0.08984977 -0.26526698 -0.13104309 0.11993617 0.038410798 -0.10458071 -0.21247049 0.039552078 -0.2683378 0.2594244 0.12095958 -0.1428856 -0.14463012 -0.18728934 -0.16069683 0.16738985 0.10292757 -0.0569491 -0.076506905 -0.037841752 -0.29792413 0.09919648 0.16775572 0.22273056 0.114471756 -0.028279098 -0.02465925 -0.051407047 0.29733178 -0.18070255 -0.34084785 0.16557477 -0.06556571 -0.19299856 0.20516074 -0.18173079 -0.2959268 0.31389704 0.22507387 0.12332813 0.077962145 -0.16521515 -0.045140013 -0.45271665 -0.22481929 0.22068673 0.22409286 -0.41173673 0.005391041 0.24784978 -0.21187201 -0.022096364 -0.1465324 -0.12848239 0.13368748 -0.2234103 0.017467445 0.04743133 -0.0029674168 -0.3435165 0.056854576 -0.09158127 0.36018687 -0.22902307 -0.0012357486 0.2531221 -0.13734971 -0.0030950059 -0.18393406 0.09256645 -0.19563381 0.068584405 0.071153514 -0.068402946 0.38131377 -0.2777354 0.23938423 -0.16865036 0.38140795 0.19634333 0.098977536 -0.019871527 -0.10255097 -0.5760066 0.16812396 0.028590983 -0.53737605 -0.12975797 -0.10306005 0.27216867 -0.18435632 0.26636764 -0.08895095 0.023912173 0.2771178 -0.06715699 -0.29291686 0.026842829 -0.3006797 -0.27204853 -0.25788024 0.022778006 -0.03979946 0.016581178 0.23084147 0.15800154 -0.09033831 -0.11038973 0.2127389 -0.042000517 -0.013538589 0.24944085 0.11619675 0.12561972
7 0.13076691 -0.068901375 -0.18561248 0.11880291 0.12057738 -0.08916536 0.04999442 0.19729273 0.32932082 -0.16639629 -0.30741057 0.04385332 0.008994248 -0.29150763 0.19568588 -0.31408092 -0.0778544 -0.15734378 -0.35258126 0.08007631 0.379746 0.23595488 -0.048054263 0.12083156 -0.051851016 -0.040550847 -0.03008621 -0.10090328 -0.052071735 -0.28117946 0.070350446 -0.19112217 -0.12788434 -0.2550004 0.09055706 -0.013793202 0.08049258 0.022034748 0.15430129 0.09944972 0.26996842 0.33341706 0.00911166 -0.042704336 0.0076845773 0.18376102 0.12847234 -0.10385836 0.2141805 -0.048268545 -0.069462046 0.1988911 0.2444111 0.34811407 0.01963739 -0.07683979 0.020528838 0.045725413 0.13065384 -0.03892752 0.052368503 -0.16980088 0.121635415 0.022751592 -0.115526736 0.0042872946 0.024999816 0.0030743936 0.18930385 -0.11651456 -0.11116955 0.08000435 -0.0628779 0.09774013 0.24121848 0.0032176394 -0.051733706 -0.023193335 -0.15622331 -0.22909385 -0.04800782 0.07827102 0.017961396 -0.29819044 -0.14798142 -0.21491313 0.24817693 0.19815753 -0.037796963 0.20484078 0.2415498 -0.09790786 0.12504096 -0.09065804 -0.17466632 0.084870175 -0.044951476 -0.37656745 0.08818552 0.18473926 -0.024630236 0.07998984 -0.12074991 -0.12098798 0.0028378635 0.008502638 0.04521414 -0.31981614 0.05440122 -0.2075545 -0.062474478 0.13580199 0.06025643 -0.044012576 -0.17164963 -0.0027649347 0.036441337 -0.084722035 0.20656364 -0.10514921 -0.061134927 -0.12596339 0.21681179 -0.40072417 -0.11404542 -0.21509388 0.18403152 -0.03488578
62 0.10396674 -0.2867251 -0.09934194 -0.18081473 0.07120406 -0.032279372 0.02715721 -0.14210491 0.09122158 -0.048207115 -0.16719294 0.12906761 -0.04279822 -0.078213915 0.28090516 -0.1473468 -0.3004773 -0.14613074 -0.031626806 0.109359905 0.17164667 -0.041119542 0.040690865 -0.017819187 -0.11630681 0.18830614 -0.019108988 -0.14963582 -0.04867118 -0.31517333 -0.13868362 0.054351237 -0.19017597 -0.06524465 0.059796542 0.02073523 0.08127092 0.07582887 0.17325646 0.19751596 -0.02238928 0.07594403 -0.07994289 0.067141324 -0.033435218 0.3195381 -0.08630142 0.05173721 0.05114254 -0.10229959 -0.15387544 0.10449564 0.09317509 0.09276546 0.030607428 -0.23417716 0.008071627 0.10348516 -0.05390063 -0.25796983 0.20957159 -0.10941724 0.13652124 0.17806746 -0.1843371 -0.109710954 -0.038607668 -0.20168093 0.41939017 0.066296875 -0.14528324 0.18069099 0.06387942 -0.038796924 0.35027984 -0.04302717 -0.14371131 0.049526896 -0.118437625 -0.004284218 -0.017090183 0.031697176 -0.11506225 -0.3465254 -0.32873583 -0.03668166 0.05334755 -0.03163588 -0.028341863 -0.02956132 0.37040436 -0.0016368051 -0.058282156 -0.16302812 0.008253564 0.021413287 0.05883396 -0.20959601 0.1414134 -0.09122712 0.028463103 -0.14865297 -0.043584965 -0.029700099 0.0054120463 -0.09591638 0.07255926 -0.19111323 0.05006229 -0.28694245 -0.25696525 0.06478593 -0.075661875 0.2082143 -0.19084078 0.003345823 -0.09664555 -0.01710143 0.17041737 -0.14548695 -0.21093751 -0.12170974 0.12318733 -0.20939234 0.0024356428 -0.023558969 0.17629287 -0.085215524
6 0.122801 -0.16519912 -0.068465225 -0.048210096 0.06648438 -0.11266394 0.1435632 0.08965264 0.3271813 -0.20396443 -0.31798372 0.114005744 0.056659754 -0.2548538 0.08028477 -0.19055676 -0.101062 -0.18943667 -0.3005823 0.16139667 0.40757728 0.30151942 -0.037465893 0.052706946 -0.17155078 -0.022378253 -0.08731166 -0.014503195 0.020133348 -0.2688008 0.077155486 -0.17881899 -0.15700036 -0.26647496 -0.0042044264 -0.033509895 0.1991333 0.019781167 0.041998178 0.008384766 0.21592635 0.33647126 0.07155808 -0.06085378 -0.016498528 0.30026054 0.15218124 -0.1231888 0.19673225 -0.12925902 -0.07068491 0.21581046 0.2514163 0.2963762 -0.016908051 -0.19507459 0.06110867 0.12439065 0.06935684 -0.11924862 0.032712094 -0.18674201 0.23160805 0.044024102 -0.15769367 0.018388767 -0.020572368 -0.06933195 0.2893672 -0.24090756 -0.13227534 0.16386627 -0.09728182 0.1117867 0.28110263 0.06285811 -0.005132722 0.08782835 -0.24655789 -0.16983587 -0.10283289 0.10171487 0.026303757 -0.35733697 -0.24435082 -0.18763123 0.2305645 0.23168848 -0.016244983 0.1529912 0.23197122 0.0036653723 0.1351824 -0.17210332 -0.22083214 0.10479252 -0.10591232 -0.35840172 0.09592507 0.1649379 0.023596136 0.11031347 -0.04450647 -0.26582766 -0.06829644 -0.04922191 0.11282611 -0.23609987 0.01618652 -0.30754066 -0.034243446 0.06904917 0.06402927 0.06203468 -0.16592011 0.025883254 0.073556125 -0.08452021 0.2944316 -0.10576351 -0.00068860856 -0.21767211 0.17462052 -0.48260856 -0.17344233 -0.20001091 0.18201876 0.00037100693
57 0.24339852 0.0982234 -0.48916417 -0.49331912 -0.32826936 -0.042184055 0.30634198 -0.035971645 0.20826513 -0.16537432 0.05164597 0.31046048 0.22837555 0.21712987 -0.38918462 -0.56180674 -0.24296553 -0.23167863 -0.5718659 0.37064585 0.3311428 0.14154318 -0.29056317 -0.051519778 -0.24131861 0.44512802 -0.26566046 0.2655143 0.1481012 -0.20551755 0.27375367 -0.13825037 0.21670555 0.08849032 -0.128687 0.11799735 -0.029837292 0.39176053 -0.06581191 -0.12489695 0.193319 0.3367214 -0.29473493 -0.0924646 -0.11574982 0.04877672 0.08954027 0.091027945 -0.012733018 -0.11722756 -0.5610416 0.08867029 0.35802406 -0.43702072 0.54314977 -0.12875247 0.14007422 -0.35956168 -0.06479313 -0.27463347 -0.06264645 -0.09309672 -0.011472974 -0.119651675 -0.44642386 0.20715983 -0.26742366 0.12683202 0.07801401 0.17493536 -0.15172297 0.17107363 0.2746112 -0.50873375 0.48621798 -0.13738339 -0.19561446 -0.4955711 0.34186605 0.076593824 0.097824045 -0.050478097 0.36942574 -0.09196372 -0.0151666785 -0.13862593 0.8440422 0.15066741 0.082946844 0.24393004 0.30264238 -0.11826149 0.03645357 0.10231733 -0.49162254 0.030175772 0.32698178 0.06943731 -0.031105202 0.767906 0.117721125 0.4573554 -0.14831068 0.38283297 0.27584344 0.6594355 0.42947423 -0.1686237 -0.3593494 0.46569568 -0.37220743 -0.39884904 -0.27639565 -0.34856713 -0.54940575 0.21926369 -0.3022908 0.22293258 0.38967463 -0.35724148 0.14730744 -0.43277976 -0.17871574 -0.12329576 0.22425693 -0.13421924 -0.024819538 -0.2639398
44 0.19798395 0.010347706 -0.40931892 -0.5911741 -0.18099664 -0.08093503 0.3454989 -0.18094558 0.08128511 0.048363462 0.13658085 0.3670616 0.09971052 0.28744262 -0.24191895 -0.51845115 -0.31618932 -0.20081912 -0.43562442 0.25771347 0.21617389 0.1641047 -0.3354815 0.042500973 -0.1582928 0.31740206 -0.2093398 0.20168866 0.1371013 -0.17355691 0.24667081 -0.1891101 0.14885466 0.09469006 -0.1617291 0.15135999 -0.019373376 0.3728045 -0.05480144 -0.097049825 0.08991904 0.31566513 -0.2281698 -0.10206579 -0.12820739 0.113992326 0.054194372 0.055441417 -0.09041385 -0.189481 -0.4823432 0.100809366 0.3605163 -0.49251166 0.45784715 -0.16804668 0.19796343 -0.3452205 -0.107506 -0.25095204 -0.06552675 0.05174282 -0.09893594 -0.21373855 -0.40594342 0.20982704 -0.24084741 0.07200069 0.048042078 0.15955566 -0.038364038 0.18200539 0.2718723 -0.48010483 0.4972152 -0.14890833 -0.19585942 -0.45537704 0.2825588 0.12632881 0.04107382 -0.0744091 0.24092272 -0.10758426 -0.0782186 -0.13951878 0.7255458 0.0933287 0.15042815 0.2199437 0.3091462 -0.012055229 0.040027242 0.1068359 -0.47019067 0.03499339 0.28471997 0.16629782 -0.07902244 0.6061183 0.09619788 0.44032392 -0.08988849 0.3303067 0.1709656 0.5880384 0.3071055 -0.065723985 -0.2852712 0.4251516 -0.30636224 -0.3956689 -0.26716807 -0.29618138 -0.44938996 0.3017628 -0.2723097 0.2216105 0.3327455 -0.28515208 0.14466807 -0.3981452 -0.2686997 0.027700394 0.17239892 -0.11270179 -0.03124689 -0.2375806
26 0.16475807 0.010473861 -0.29811025 -0.583583 -0.25866276 -0.03547484 0.44534343 -0.13760778 0.041755907 -0.006884915 0.08036228 0.4071554 0.19137277 0.36728495 -0.3172446 -0.48634595 -0.26763046 -0.16811165 -0.4496735 0.34029445 0.23450896 0.028056646 -0.34138852 0.028073698 -0.16308834 0.41500404 -0.37420082 0.20681754 0.0854914 -0.067305215 0.33412576 -0.040265188 0.24278589 0.114952415 -0.1927808 0.10018716 0.123319395 0.34681374 -0.027102891 -0.057846483 0.06281852 0.28602293 -0.27137488 -0.10982371 -0.14199015 0.13157211 0.060968846 0.07988554 -0.12052155 -0.12251715 -0.3696103 0.072502695 0.41019055 -0.48945478 0.49260345 -0.13921078 0.14441693 -0.3467302 -0.18591103 -0.3772505 -0.03902163 -0.0024775767 -0.1047205 -0.16708563 -0.4686622 0.29403114 -0.2618364 0.07354172 0.035740662 0.17906606 -0.17885047 0.19560139 0.21436381 -0.4827445 0.5000728 -0.09624028 -0.25472233 -0.48615775 0.271684 0.12290658 0.09839673 -0.043003432 0.30769703 0.00816033 -0.028252903 -0.06552765 0.8013497 0.21331427 0.21804065 0.29112425 0.28636235 -0.05817186 0.04699184 0.10654674 -0.45548928 -0.013910308 0.2605882 0.2060765 -0.08956508 0.75023973 0.109207645 0.49770814 -0.06241607 0.4036324 0.25562212 0.53027236 0.4426453 -0.11959844 -0.35351813 0.5443599 -0.39128 -0.399186 -0.22577716 -0.24495587 -0.54068494 0.20387426 -0.39868757 0.29035634 0.407999 -0.31616977 0.14568877 -0.4213641 -0.22858849 -0.02516331 0.1809302 -0.056504946 -0.0016490776 -0.18985173
25 0.1824006 0.010238585 -0.44468686 -0.55877596 -0.25508264 -0.0075161257 0.35936487 -0.089640796 0.2150202 -0.1040914 0.045830246 0.38481966 0.16803567 0.31334844 -0.28373328 -0.614978 -0.24537437 -0.23702596 -0.5233872 0.4096252 0.31232926 0.10301107 -0.31559056 0.04822424 -0.17161004 0.2876564 -0.34891126 0.13936251 0.07129891 -0.24093607 0.32026908 -0.20644864 0.17468037 0.10000184 -0.19248681 0.16022901 0.011760796 0.41065782 -0.059546802 -0.095139526 0.118997216 0.33817527 -0.19473392 -0.14570592 -0.1435778 0.12250397 0.14039007 0.0849135 0.032201648 -0.17207761 -0.4797363 0.104270935 0.3329504 -0.35629684 0.37068838 -0.16274011 0.19412519 -0.38595343 -0.13655038 -0.23321365 -0.003009207 -0.037607998 -0.1362307 -0.09037391 -0.49244228 0.24831128 -0.2539559 0.06677002 0.08164567 0.08722921 -0.08473151 0.19295932 0.2586054 -0.49106646 0.5079249 -0.11128693 -0.16877964 -0.44715807 0.3241055 0.11514642 0.10096866 -0.048388828 0.27931982 0.08813866 -0.030260928 -0.07891526 0.8143002 0.045157194 0.15261155 0.063720725 0.18636653 -0.0146214105 0.089569576 0.086446494 -0.46569166 -0.042744137 0.32115102 -0.011490345 -0.01725727 0.6714294 0.032400217 0.4833352 -0.13202015 0.40774193 0.19620211 0.50734794 0.35823354 -0.11076138 -0.28146446 0.45408872 -0.37787187 -0.296164 -0.12752654 -0.29645357 -0.4640161 0.3295457 -0.28702244 0.25698292 0.24444428 -0.40695134 0.16688558 -0.41766813 -0.23345721 -0.08661347 0.15556483 -0.039239023 -0.058160365 -0.23731582
54 0.0767929 -0.26255858 -0.008146728 -0.021316899 0.031039232 -0.003789214 -0.13142522 -0.05652756 0.07641097 0.0164232 -0.21033315 0.028321581 -0.04650788 -0.16045523 0.273598 -0.10445315 -0.3317925 -0.13392712 -0.09240618 -0.030551907 0.16524228 -0.030139789 0.08261735 0.04228627 -0.11011521 0.19802988 0.0696724 -0.17603153 -0.10695288 -0.31817743 -0.18953867 0.08903213 -0.14113039 0.04095658 0.16731112 0.018251741 0.006124726 0.10923351 0.109266885 0.1820634 -0.03595735 -0.030033207 -0.12448255 0.076477066 -0.04806289 0.16001977 -0.12686723 0.00830705 0.108483195 -0.029961092 -0.27045885 0.05374247 0.006983379 0.113712415 -0.0040536723 -0.21833946 0.023943782 0.014148849 -0.07567733 -0.15906753 0.25126934 -0.1016054 0.011872846 0.13758086 -0.13280925 -0.18300363 -0.026619969 -0.24347836 0.38835785 0.11579825 -0.15053542 0.19538914 0.1306518 -0.09701931 0.46365276 -0.09436173 -0.09813392 -0.06993775 -0.13568836 0.020311346 0.07555248 -0.03604852 -0.112457894 -0.39788955 -0.35011122 -0.0109295 0.074876666 -0.124727026 -0.05869872 -0.012973841 0.4513879 -0.045125093 -0.037264943 -0.09929442 -0.03172568 0.0699988 0.14665961 -0.20310447 0.14249031 0.0033455633 0.00041195477 -0.21071517 -0.093671836 0.1343577 0.008052764 -0.049331233 0.0475818 -0.17143357 0.0380482 -0.274102 -0.31279078 0.011644533 -0.1685567 0.101327784 -0.23428583 -0.008761802 -0.21415372 0.09854248 0.05589995 -0.22451909 -0.24277262 -0.1404128 0.085819475 -0.19565073 0.06213049 0.031255458 0.17854139 -0.15210506
20 0.01156599 -0.14866595 -0.04958719 -0.07459818 -0.041938152 -0.023885846 -0.14758208 -0.100416385 0.12157445 -0.008207933 -0.12785268 -0.015639994 -0.05766363 -0.18859902 0.28817686 -0.15377954 -0.35085568 -0.24564658 -0.09859882 -0.0037857166 0.18357931 -0.025556432 0.14728698 0.068729706 -0.05862358 0.2660173 0.08387174 -0.13893633 -0.028629743 -0.33482006 -0.20436437 0.03055415 -0.1873182 -0.0841077 0.08676738 -0.03428203 -0.014161901 0.10661574 0.17066692 0.23088165 -0.009506317 -0.014155557 -0.100424476 0.1404877 0.011446283 0.32408306 -0.11338999 0.040013332 0.043026052 -0.039269812 -0.2364092 0.095464975 0.0038978646 -0.018783618 -0.022362197 -0.19045345 0.07464183 0.08467613 -0.051898077 -0.11946175 0.19731946 0.039008316 -0.048402622 0.14803313 -0.1551568 -0.12081867 -0.019307211 -0.09172036 0.33320653 0.22088096 -0.057123575 0.19176617 0.20940621 -0.18157388 0.3713427 -0.15911362 -0.06941851 -0.053640556 -0.0049628676 0.073626116 0.08812927 0.022169521 -0.107322104 -0.4477789 -0.35019064 -0.06062142 0.06442114 -0.084870204 -0.026738895 0.011073007 0.5029969 -0.044532254 -0.0644894 -0.055285685 -0.030077111 0.06366832 0.1643444 -0.10891167 0.074741706 -0.047277205 -0.019555185 -0.13368297 -0.08196435 0.13037995 0.04907981 0.0052370788 0.012878413 -0.09931754 0.08367283 -0.22322458 -0.23728234 0.08609462 -0.1969134 0.14947104 -0.25466403 -0.008616873 -0.16492893 0.013495827 0.09837692 -0.19952244 -0.24850565 -0.06769743 0.06950641 -0.12075704 0.048891947 0.071888104 0.14296773 -0.079529084
8 0.016189706 -0.21482521 -0.12376521 -0.0054504615 0.086527094 0.040963635 -0.22356728 -0.08126225 0.057886425 -0.09001009 -0.0839404 -0.005121037 0.011526046 -0.24648574 0.2582875 -0.18104675 -0.24859172 -0.118803084 -0.069658965 0.006076902 0.1641281 -0.008745739 0.105427176 -0.07797073 -0.17213884 0.31022176 0.047206003 -0.14606413 0.017978568 -0.298334 -0.19899829 -0.012811631 -0.19709349 0.03160835 0.1381791 0.0057908976 0.081465065 0.07592594 0.15284671 0.07662898 0.04854205 0.020581668 -0.07184668 0.1428007 -0.01827665 0.14652517 -0.11061118 0.07152746 0.123728424 -0.03592527 -0.20448105 0.052647937 0.07616217 0.090664126 -0.08822201 -0.08892873 -0.011238016 0.081538916 -0.04725425 -0.14297509 0.10427916 -0.14713128 0.12141906 0.14627127 -0.17834693 -0.1027445 -0.046314623 -0.13082804 0.3948135 0.115131915 -0.22103103 0.16012475 0.10076736 -0.060175374 0.30622634 -0.04251617 -0.08825051 -0.032274902 -0.06662628 -0.0404165 0.05334178 -0.041724186 -0.12611285 -0.3992952 -0.32918757 -0.081692584 0.15206482 -0.015762968 0.024644773 0.1145547 0.47493654 -0.08205373 -0.08932689 -0.09008423 -0.010511242 0.085169494 0.1318361 -0.12109361 0.06900392 -0.02963717 0.060285788 -0.14788602 -0.09161618 0.034865018 0.08053397 -0.03975419 0.03072182 -0.2499206 0.038829897 -0.23659219 -0.29847768 0.13352963 -0.08296593 0.13207842 -0.27838188 -0.025468929 -0.12524943 -0.034566034 0.099893935 -0.13724726 -0.23889627 -0.08370424 0.22065343 -0.20559828 0.08432297 0.01251273 0.19920532 -0.07281443
43 -0.03757445 -0.15941904 0.026766736 -0.021176817 -0.04733785 0.002384128 -0.2158439 -0.06286271 0.082443394 -0.08594052 -0.16129838 -0.0067058527 -0.017895775 -0.23647946 0.281221 -0.076621264 -0.35253337 -0.20723389 -0.104721874 0.029664446 0.17170936 -0.06935158 0.16699278 -0.04217264 -0.113408394 0.34126353 0.039088592 -0.13840765 -0.05877968 -0.42042854 -0.25400817 0.09777443 -0.18900646 -0.034144342 0.109445564 -0.03329086 0.07078413 0.08549787 0.18746841 0.12748739 -0.013631552 -0.05618179 -0.03819956 0.1755773 -0.05532726 0.1591656 -0.10722764 0.027318968 0.05311943 0.01831521 -0.15593162 0.10712741 0.011943873 0.05388589 0.021498764 -0.12200536 -0.0056579607 0.06665281 -0.10873393 -0.13901418 0.1475426 -0.11615398 0.08394461 0.21628295 -0.21298932 -0.10219952 -0.04034498 -0.088029034 0.41792724 0.14742918 -0.13567807 0.26538178 0.12361023 -0.15289424 0.31037414 -0.049761433 0.022022765 -0.02568284 -0.053409863 0.074115396 0.023978075 0.039702095 -0.13024479 -0.34928223 -0.37542287 -0.054185383 0.065412134 0.013372622 0.05879979 0.052745476 0.46352485 -0.13562067 -0.055016205 -0.059404522 0.038052674 0.05459306 0.15107827 -0.09194831 0.067862175 -0.006850264 0.0592131 -0.148858 -0.061828665 0.02868403 0.0619266 -0.04161373 0.01995034 -0.2007075 0.04329357 -0.26394257 -0.27098206 0.09089548 -0.17448026 0.15852363 -0.2251925 -0.051684003 -0.17585266 0.02988721 0.10585592 -0.1015331 -0.29244763 -0.08451777 0.157429 -0.17701642 0.053468008 0.047928188 0.23158678 -0.050780304
60 0.08291916 -0.14342427 -0.03267729 -0.008333474 0.025724217 -0.010889823 -0.19125561 -0.014072602 0.09070775 -0.08011271 -0.2639564 0.0030590927 0.003427006 -0.2660872 0.24413121 -0.016880892 -0.35236335 -0.22638068 -0.08823675 0.013432182 0.10782678 -0.08563297 0.23628165 -0.066331685 -0.1367912 0.32869884 0.11285878 -0.13062392 -0.020667158 -0.3644177 -0.24411836 0.09709464 -0.18303894 0.030896578 0.19391462 -0.018450499 0.07375771 0.065555096 0.13108063 0.06544542 -0.010056154 -0.046203643 -0.09957969 0.18518744 -0.06440992 0.060391676 -0.10914283 0.049889352 0.1364192 0.026381355 -0.20977895 -0.0063776574 -0.077955805 0.022971757 0.10467646 -0.13925542 0.06380328 0.045075044 -0.13610093 -0.15497942 0.16988787 -0.111112505 0.05578333 0.24710834 -0.18053225 -0.1392531 -0.022443607 -0.105879664 0.3833586 0.148364 -0.16239926 0.23692732 0.13201614 -0.13847606 0.2801523 -0.048784204 0.0008175835 0.07356919 -0.10335533 0.096063085 0.027474346 -0.011097991 -0.14346817 -0.34630597 -0.35590687 0.050325498 0.14096312 0.005790708 0.038597006 0.04746998 0.4224486 -0.1318143 -0.11332245 -0.043502964 0.04428229 0.048134886 0.19607265 -0.13293844 -0.0037752504 0.03140506 0.055215497 -0.16154869 -0.026170429 0.0855952 0.083468445 -0.11018109 0.083486244 -0.18178226 0.00831301 -0.14469337 -0.25925326 0.05908506 -0.19514698 0.15312654 -0.22355902 -0.018268704 -0.19058944 0.05308766 0.064950176 -0.05543343 -0.29235923 -0.08292866 0.16131867 -0.12869896 0.11237675 0.04984514 0.12244406 -0.046529137
14 -0.049118303 -0.20459473 -0.02853507 -0.048771545 0.06419131 0.079652235 -0.33947146 -0.18707809 0.0018475689 -0.041607626 -0.0760841 0.010319616 -0.0014777043 -0.30265993 0.30978453 -0.13812986 -0.38340437 -0.17410515 -0.083841756 -0.086621515 0.11322272 0.03242998 0.1765249 -0.023492381 -0.18906996 0.36768672 0.09754352 -0.22471246 -0.003962853 -0.3939186 -0.28400445 -0.042555712 -0.29882926 0.022630258 0.14241359 -0.0020793658 0.14106044 0.06782742 0.123158745 0.004736929 -0.0053990227 -0.053911988 0.034439333 0.20291087 -0.06985555 0.17301638 -0.11204562 0.037216336 0.13455497 -0.034294125 -0.20391008 0.07171983 0.026805721 -0.001507281 -0.129659 -0.09750409 0.13023125 0.0569887 -0.21111514 -0.11024177 0.087090716 -0.055924524 0.001627303 0.13907045 -0.23339723 -0.027415916 -0.07663757 -0.12593727 0.3672802 0.12546997 -0.15734625 0.27485868 0.13876492 -0.18711993 0.38845506 -0.0466517 0.009815506 -0.016026862 -0.057455625 0.10239785 0.0030588524 -0.023700478 -0.18627997 -0.3500736 -0.3830401 -0.04849741 0.1416304 -0.062424146 0.15653585 0.14730683 0.52831405 -0.14795557 -0.08612021 -0.083559856 -0.014526669 0.06886218 0.1309513 0.041964244 -0.009518312 0.01921378 0.045470286 -0.098090336 0.0015738299 0.053039175 0.040246125 -0.028140215 0.03961581 -0.06383064 0.003387478 -0.17743589 -0.22296019 0.086700864 -0.16107473 0.22189729 -0.2653505 -0.06379682 -0.16907118 -0.04279798 0.09505211 -0.13774766 -0.2158638 -0.0855969 0.1060568 -0.1340471 0.077063695 0.09309845 0.19065468 -0.019139273
28 0.0914399 -0.22462104 -0.2159373 -0.15967262 0.22243497 0.1741178 0.26696458 0.014186199 -0.1749478 0.10931627 0.18090022 0.18636295 -0.022193931 0.1499062 0.06872103 -0.08253114 -0.008285587 0.12560523 0.14099216 -0.1463066 -0.31178153 -0.057254173 -0.18669575 0.21265915 0.11608279 0.02051684 -0.07015957 -0.21166067 -0.1321691 0.17895117 -0.031037623 -0.030209284 -0.090215534 0.07349887 -0.1287971 0.052791175 0.22287439 0.12821984 0.06497321 -0.16541235 -0.0010007279 -0.06325498 0.26539728 -0.0491281 -0.2570026 -0.13285786 -0.04572291 -0.11301947 0.3343831 -0.101296805 -0.18802637 0.19671966 0.1749157 0.24463245 -0.017043384 -0.04468561 0.003539992 -0.37876916 -0.26284775 0.2498268 0.16656205 -0.42922536 0.11322077 0.30907091 -0.1564136 0.03181638 -0.30360276 -0.14020763 0.20726143 -0.34458953 -0.11907191 0.15698189 -0.115391485 -0.29402587 0.10244632 0.06892484 0.26580107 -0.20557083 -0.09962466 0.2600028 -0.17418048 0.020507779 -0.043854292 0.1335945 -0.20580138 -0.046026744 0.17240441 0.033573385 0.40974775 0.015322455 0.30850416 -0.28324774 0.34907752 0.18482527 0.06427501 0.13154835 0.071244396 -0.29541442 0.12593873 0.08085376 -0.35007626 -0.042548157 -0.11690465 0.24479385 -0.048091237 0.33505845 -0.051609557 -0.19696835 0.24839047 -0.04677297 -0.18323639 0.04206821 -0.32094556 -0.1924789 -0.29353595 -0.09342745 -0.051270474 -0.09566652 0.42071337 0.09652692 -0.07318276 -0.13892834 0.3065773 -0.09843265 -0.004309902 0.14062037 0.29644814 0.07144764
45 0.1787832 -0.20612037 -0.2432383 -0.14868747 0.2208417 0.21109234 0.30208924 0.081334636 -0.21988991 0.12839799 0.11879697 0.21931693 0.0042023896 0.16786695 0.07400135 -0.1393251 -0.040620666 0.1498098 0.13357833 -0.061509587 -0.34252083 -0.11924605 -0.18371846 0.21840036 0.18395862 -0.05491887 -0.118306 -0.24188395 -0.22206663 0.13456903 0.016592797 -0.053616304 -0.09365938 0.1383256 -0.10620314 0.13157068 0.19641383 0.1492373 0.0754214 -0.17387766 -0.012159977 -0.042567153 0.2244278 -0.04431193 -0.30781406 -0.2453011 -0.045092233 -0.117341176 0.36429664 -0.040498413 -0.24032699 0.16749416 0.1794957 0.23528254 0.07572514 -0.08456487 -0.005776898 -0.42100048 -0.26925305 0.21506213 0.15086628 -0.47785598 0.110433474 0.35410127 -0.18191488 -0.005228293 -0.26967317 -0.14981394 0.21531059 -0.3159927 -0.08136343 0.14747012 -0.10579365 -0.28769556 0.056507025 0.047826126 0.29064602 -0.15694894 -0.10374756 0.26693237 -0.23398682 -0.025890654 -0.16281405 0.17735766 -0.23953663 0.045198523 0.1976498 0.035702255 0.40437877 -0.06400524 0.29885477 -0.29248038 0.2916923 0.2234008 0.073366575 0.08547343 0.07344768 -0.403165 0.123345725 0.092308775 -0.26280624 -0.07256867 -0.15261847 0.16869603 -0.04274944 0.206418 0.008591797 -0.24041657 0.2424091 -0.03640288 -0.25786892 0.06449685 -0.28421912 -0.19832577 -0.2706655 -0.023529116 -0.05355142 -0.04801541 0.318949 0.1646962 -0.12371562 -0.13297966 0.3234486 -0.11991846 0.013852431 0.13386624 0.35722038 0.026129007
2 0.2505515 -0.26580384 -0.08823837 -0.08849122 0.34568182 -0.5097622 0.3375408 -0.045643598 0.13336317 0.1848576 -0.3711743 -0.0697512 -0.15487936 -0.41366646 0.35554597 -0.46867847 -0.48843434 -0.2632505 -0.36315575 -0.29140446 0.36088964 0.4211646 0.32466668 0.28324896 -0.16339043 -0.1540849 0.17844753 -0.34880304 -0.08055359 -0.054032683 0.040143095 -0.450942 -0.40084258 -0.09301956 0.14376523 -0.034783747 0.19901612 0.011880047 0.096606545 -0.303288 0.34928116 0.060889345 0.2137985 0.368452 -0.01935672 0.108767524 0.02366605 0.10890366 0.24039474 -0.0087147765 -0.2071397 0.037733268 0.0028573463 0.103567645 -0.06954501 -0.032677393 0.16003726 0.28080928 -0.08848257 0.10728838 0.047940034 0.114099815 0.14919119 0.19386132 -0.19981441 0.08981277 -0.094634555 0.011021349 0.39446172 0.10491476 -0.134764 0.17727198 0.12717898 -0.110085845 0.012604708 0.007820054 0.17195901 0.20161827 0.09426542 0.04452541 -0.15985446 -0.037036616 -0.09089114 -0.22103824 -0.1818889 0.027751233 0.15220131 0.020913258 0.13671823 0.23203988 0.16503802 -0.34446168 -0.15557575 -0.29756153 0.16176188 -0.03778085 -0.18265018 0.013509541 -0.10975311 0.10680268 0.057527028 -0.008931103 0.2617255 -0.057875942 0.16063881 -0.14076923 0.319513 0.16935694 -0.16793597 -0.23556711 0.03075208 0.004776346 -0.089993395 0.3023041 -0.14507923 -0.31537846 -0.19844778 -0.19802774 0.06023105 -0.19488634 -0.02339625 -0.033450563 0.20029111 -0.022396129 0.03561504 0.16304775 0.06804162 0.15414523
39 0.18052407 -0.29443014 -0.0821483 -0.097161815 0.36756092 -0.4633454 0.31916857 -0.055752385 0.17024355 0.14756335 -0.34073454 -0.039437935 -0.12506674 -0.4626174 0.4062614 -0.46630836 -0.5451176 -0.28147143 -0.4069586 -0.30965152 0.35180843 0.4375222 0.3214031 0.34226298 -0.16786402 -0.059161287 0.1507294 -0.36563742 -0.04967528 -0.108540274 -0.060058735 -0.4190989 -0.46094993 -0.14437024 0.12879787 -0.09467191 0.22706278 0.01741358 0.09554138 -0.2723122 0.33200324 0.037059072 0.247603 0.3333484 -0.03416141 0.22091651 0.0240956 0.10113782 0.26473573 -0.03803707 -0.21080524 0.09183841 -0.006274626 0.10947321 -0.152983 -0.012196509 0.17736237 0.29983154 -0.09385905 0.13682133 0.020190936 0.13607827 0.07717614 0.14282483 -0.17278764 0.070363425 -0.08232356 0.011095373 0.40222263 0.07017388 -0.108393274 0.21947551 0.066608116 -0.11501363 0.08229122 0.08636197 0.23377661 0.14218175 0.10949134 0.06023611 -0.08667606 -0.004550041 -0.07684426 -0.23171096 -0.21016803 -0.059582222 0.13209485 0.03770391 0.17359397 0.24225518 0.19746254 -0.37189347 -0.085220456 -0.26180804 0.15377924 0.0292655 -0.1323735 0.031590823 -0.06389376 0.071806 -0.07444128 -0.01705827 0.23703505 0.0037582428 0.10914103 -0.088576846 0.16165937 0.17292286 -0.10647806 -0.27482504 0.06729736 0.07102248 -0.10032657 0.2965941 -0.1226127 -0.36150166 -0.2013802 -0.26076508 0.060922977 -0.2207653 -0.0263603 -0.02694485 0.18383907 -0.047061387 0.03641005 0.1415484 0.062557936 0.10957435
30 0.21372613 -0.111897595 -0.054907747 -0.06645853 -0.39912197 -0.11999334 0.45643452 -0.08759375 0.04251661 0.1970615 -0.3140767 -0.08899351 -0.16032301 0.15799482 -0.079810165 0.006840608 0.3026965 0.039011657 -0.20363313 0.049626525 0.04240889 0.17325075 -0.23965654 0.07986304 0.1801474 -0.22596556 0.13668117 -0.15728691 -0.21399067 0.107597195 0.20333818 -0.07967396 0.17997974 -0.3587542 -0.044487365 0.04612 -0.27956024 -0.11879545 0.27535015 -0.14624988 0.20631489 0.038282324 0.02889049 0.00017373622 0.20673266 -0.065299444 -0.053615194 0.31697494 -0.2534942 0.1479286 0.229348 0.24114841 0.09008275 -0.092051215 0.40288517 0.27739352 -0.41730088 -0.0010232093 0.14724028 -0.17240249 -0.002300812 -0.45777053 0.6515197 0.022433877 -0.24930677 -0.14910477 -0.0919521 -0.013453046 0.18135911 0.13467409 -0.38125136 -0.004528003 0.07269787 -0.014634085 0.037112188 -0.26050192 -0.18357103 -0.16175538 0.048523743 -0.2577641 -0.091618985 0.030671885 0.23921858 -0.25324386 0.016721362 -0.23894677 -0.09521996 0.25078672 0.055187497 0.47987425 0.26129112 -0.33269235 0.046372395 0.092977874 0.37845984 0.049365632 0.011396677 0.2721391 -0.077954285 0.085705504 0.11631066 -0.13616595 0.1460293 0.060697783 0.28956297 0.26976284 0.05012395 -0.21214704 -0.09371221 0.2112324 -0.2494504 -0.15117891 -0.23853777 -0.12189866 -0.3167612 -0.45359433 -0.015213188 -0.17835738 0.3992574 0.24955623 -0.14771345 0.18337032 0.31413835 0.108765155 0.30966222 0.047725566 -0.15763932 0.18692727
36 0.23442948 -0.20447795 -0.02582627 -0.12937403 -0.41385576 -0.12677422 0.5270334 -0.12110364 0.12304464 0.24378675 -0.5174431 -0.047033943 -0.18600205 0.061957214 -0.029341932 0.11017389 0.2867841 -0.034275927 -0.20666103 -0.09982834 -0.05016022 0.25589147 -0.21431911 0.1650652 0.22265042 -0.27032635 0.3058034 -0.19482566 -0.13511877 0.06712321 0.12179416 -0.076324955 0.16951217 -0.35683998 0.04944354 0.029947052 -0.25075465 -0.21288808 0.24296941 -0.21794893 0.17555748 0.058478516 0.03238675 0.010662704 0.21188629 -0.00745945 -0.033677246 0.34943634 -0.20155902 0.11403085 0.18731956 0.21447256 0.030335806 -0.09563805 0.42563966 0.2361181 -0.35152185 -0.08924936 0.03382873 -0.23543993 0.00941729 -0.55796444 0.65640444 0.017278234 -0.2980703 -0.13969159 -0.09347856 0.018713228 0.08586994 0.09913445 -0.41804123 0.02759739 0.0056866594 0.051433798 7.48352e-05 -0.20056319 -0.09737403 -0.1396201 -0.0400284 -0.22915506 -0.08057363 -0.0016509327 0.26193452 -0.22808567 0.0039251624 -0.25982773 -0.1567391 0.27881625 0.12344029 0.43106955 0.2983419 -0.33637685 0.07585669 0.1891393 0.38881052 0.06958982 0.08175666 0.22370282 -0.23979627 0.23247008 0.019064447 -0.20825502 0.20119825 0.11854711 0.24797349 0.2994654 0.038238548 -0.14135508 -0.13927633 0.37508065 -0.17362213 -0.15143274 -0.2611013 -0.14033546 -0.2804807 -0.48930946 0.028438633 -0.1731555 0.3979698 0.33191022 -0.15890428 0.21060646 0.2878687 0.17831814 0.3433251 -0.008213662 -0.3295376 0.25519308
41 -0.014878213 -0.30906144 0.052589294 -0.05454692 0.038892277 0.022063134 -0.14084354 -0.11610956 0.026513858 0.0141314985 -0.19589785 0.064269096 0.023356287 -0.15446532 0.29408395 -0.06793454 -0.413521 -0.16008443 -0.010165579 -0.034153525 0.14298934 -0.09472756 0.12724201 0.122834414 -0.08793013 0.29288098 -0.0034686201 -0.18574794 -0.13401814 -0.35654917 -0.25312528 0.15438992 -0.14541072 0.089468345 0.105983116 -0.017770723 0.06490321 0.053950608 0.032631427 0.19156222 -0.15190865 -0.11276103 -0.16392986 0.050389085 -0.05367993 0.20828271 -0.15777348 0.0037180723 0.09683491 -0.052823626 -0.23846471 0.06506287 0.00066120346 0.07315366 -0.07009132 -0.17331842 0.077313736 0.105637364 -0.09384515 -0.13632677 0.15613519 0.027798053 -0.032320254 0.098205514 -0.12918866 -0.18280475 -0.023267662 -0.19140239 0.30779943 0.15495431 -0.13587974 0.17478473 0.11773815 -0.09110723 0.3921015 -0.07263417 -0.04496355 -0.083865516 -0.15261509 0.05438173 0.08104574 -0.033699047 -0.14367703 -0.45692325 -0.35349897 -0.07005407 0.0050479006 -0.061328903 0.04192646 0.033838004 0.5164844 -0.044435095 -0.023895362 -0.058150407 0.0015063002 0.16521099 0.118944086 -0.01046038 0.09085235 -0.04313983 0.011807052 -0.2140584 -0.04775737 0.073783316 0.023403427 0.019403704 -0.031083664 -0.15855248 -0.005301656 -0.13385999 -0.28513998 -0.004395115 -0.23175031 0.048421394 -0.31643352 -0.09467519 -0.18089457 0.070128 0.12043918 -0.065629825 -0.29268438 -0.08593721 0.113262944 -0.17283474 0.0679465 0.06621104 0.22234641 -0.10144301
59 0.1921251 -0.2678559 0.0026502083 -0.09158605 0.29663008 -0.2323435 0.19191366 -0.015634455 0.074116595 0.07309205 -0.3773248 -0.023734817 -0.058403697 -0.4590904 0.41302964 -0.25969467 -0.5191213 -0.3258175 -0.32518947 -0.12073714 0.26554266 0.32903278 0.32412148 0.27957994 -0.17154895 0.01030994 0.11109106 -0.3931094 -0.083752826 -0.31254554 -0.10440307 -0.41066733 -0.3969219 -0.036624167 0.16988336 -0.06463239 0.22784661 -0.012626037 0.005250227 -0.24321626 0.24952188 0.056374457 0.054249916 0.26220244 0.012630465 0.05195124 0.044239324 0.106977925 0.21560915 0.023932606 -0.0967489 -0.009520826 -0.08426636 0.035203516 -0.014124488 0.047337204 0.19476746 0.2801975 -0.071304195 0.10063157 -0.096871935 0.15086944 0.078737944 0.121314585 -0.16161583 0.046937954 -0.05155338 -0.013407039 0.31233597 0.030878644 -0.09402058 0.23520377 0.0040068426 -0.11851965 0.06750418 0.14206608 0.12957686 0.16007954 0.02084951 0.06703218 -0.10376927 0.014894711 -0.09070829 -0.12434447 -0.28863773 0.009601198 0.21728486 0.10633842 0.2704197 0.1740901 0.27856666 -0.3517349 -0.107704595 -0.1660116 0.14544117 0.044385094 0.012489571 0.078301445 -0.14940335 0.0987484 0.043710053 -0.0051049 0.21960932 -0.008658851 0.11194684 -0.116316915 0.11995742 -0.068135135 -0.073532484 -0.16808845 -0.024121867 0.07684754 -0.11478464 0.24011603 -0.119026355 -0.25603387 -0.22993733 -0.2730639 0.17192234 -0.1686689 -0.12603363 -0.06958332 0.25668195 -0.06276608 0.07078524 0.094976924 0.18039243 0.048454117
9 0.0790206 -0.2012787 -0.011540193 -0.08800631 -0.016189486 0.031830493 -0.19239424 -0.103662334 0.07313579 -0.079560846 -0.21999733 0.0070074745 -0.008751646 -0.20344172 0.20710284 -0.028110651 -0.32634652 -0.187358 -0.108278275 0.019347506 0.09586 0.022795197 0.17428076 -0.01389701 -0.17006698 0.22279944 0.0747486 -0.14943613 -0.021647932 -0.34486613 -0.2546291 0.06479498 -0.20465763 -0.074520275 0.10850498 -0.012148258 -9.085888e-06 0.025914185 0.06954318 0.086919054 -0.05646441 -0.06921842 -0.04213828 0.104808286 -0.045446947 0.23946533 -0.10093462 0.01895685 0.04666292 -0.00044220878 -0.18508008 0.063641764 -0.124268174 -0.036357954 0.01126611 -0.17074077 0.059257623 0.06005169 -0.13715097 -0.13865973 0.11476829 -0.07522346 0.019208709 0.14242098 -0.17451943 -0.15387964 -0.017569292 -0.18203124 0.35662502 0.13383847 -0.14444011 0.21186803 0.17046173 -0.18204676 0.35511574 -0.099322036 -0.021582097 0.07126655 -0.095220886 0.04877061 0.07020925 -0.019283842 -0.1573573 -0.40651438 -0.39044166 0.035382632 0.07672423 -0.08363926 0.011528958 0.054969605 0.46869928 -0.10924685 -0.086802006 -0.03158843 0.052497417 0.08695867 0.15798195 -0.16137879 0.03290862 -0.01594878 -0.030017478 -0.20196243 -0.0047608567 0.10796004 0.0056547066 -0.11930798 0.087035574 -0.0387222 0.01810449 -0.23579887 -0.2722466 0.06831837 -0.1918752 0.2526744 -0.24486065 -0.049937855 -0.18781161 0.0050200056 0.0316118 -0.15838113 -0.27447677 -0.0933659 0.08709239 -0.104310766 0.14373077 0.10166668 0.022265116 -0.052722372
3 0.15449099 -0.27815253 -0.024797535 -0.05722305 0.43598625 -0.49841267 0.3878263 -0.027257256 0.11398872 0.17637795 -0.31279513 -0.049643017 -0.20715958 -0.3946302 0.41847983 -0.47696814 -0.46583068 -0.2508913 -0.40151495 -0.29848832 0.3561406 0.4216659 0.29610378 0.2975491 -0.13923287 -0.19965059 0.09773984 -0.32160765 -0.04737257 0.012426557 0.06492221 -0.44592935 -0.44986948 -0.14126033 0.14955518 -0.041138284 0.29927823 0.011392356 0.13398002 -0.28470048 0.41375992 0.09837892 0.27627522 0.33932427 -0.0013750104 0.17202601 0.09652151 0.08739081 0.23226573 -0.016052434 -0.110817805 0.05054549 0.030137116 0.14640982 -0.12170684 -0.029562779 0.12893409 0.30198476 -0.07960867 0.11532395 0.034838136 0.11882187 0.14518815 0.20443225 -0.18645772 0.12676618 -0.12455875 -0.029322786 0.4525492 0.020748634 -0.13749725 0.22834386 0.049581874 -0.091224596 0.045720015 0.10014372 0.14681911 0.19283466 0.09649122 0.05445723 -0.11715439 0.03676405 -0.081529774 -0.11367789 -0.17594558 0.019334583 0.15639244 0.046789113 0.14614841 0.20387416 0.0913749 -0.297748 -0.096962474 -0.31829503 0.13623172 -0.05775207 -0.1684825 0.019581344 -0.09101866 0.08404605 -0.033119008 0.012139653 0.22640672 -0.006690294 0.12005003 -0.19694783 0.23814087 0.122434944 -0.092213064 -0.28028274 0.0348851 0.082466245 -0.037810694 0.2988662 -0.11608116 -0.25425482 -0.27274776 -0.15392295 0.030401433 -0.19818652 -0.036604192 -0.055110928 0.22730921 0.030280128 0.011953162 0.16877608 0.101496354 0.1771099
4 0.14960282 -0.22732177 -0.1718817 -0.09197139 0.26988888 -0.2779639 0.08267341 -0.09073487 0.040581048 -0.0009704074 -0.13884766 -0.06350183 -0.070605636 -0.4969201 0.34111735 -0.35309014 -0.4645023 -0.29251757 -0.3325469 -0.19516802 0.26970136 0.381519 0.2693474 0.16277392 -0.25358647 0.12918128 0.16116884 -0.31667525 0.03136552 -0.28897402 -0.13959451 -0.4648207 -0.46239427 -0.14520244 0.1659465 -0.07263593 0.17755893 0.06446791 0.18433115 -0.26567084 0.3592358 -0.027424084 0.17119141 0.4177475 -0.0174599 0.09261296 -0.04108547 0.122441106 0.21802464 -0.047068946 -0.16271201 0.05860423 -0.057278823 0.08400668 -0.11797785 0.022636142 0.119339034 0.28304824 -0.061051052 0.12591095 -0.012813267 0.033501443 0.27706417 0.21090952 -0.19181602 0.056805544 -0.16366793 0.019997481 0.5035397 0.014587666 -0.1768719 0.278221 0.050780885 -0.19172026 0.0847984 0.061427698 0.18152493 0.15751898 0.045194533 0.019505117 -0.12373361 0.045979276 -0.048532777 -0.2381945 -0.22011551 -0.15904959 0.16847314 0.041957907 0.15938455 0.30795273 0.27945504 -0.34419158 -0.10962247 -0.16825548 0.11969316 0.058141656 0.021335667 0.24298401 -0.14293744 0.0009639842 0.148 0.015977541 0.18253261 -0.094767965 0.1399625 0.005991871 0.023343915 -0.05161048 -0.04606477 -0.25494158 0.07361466 0.14495893 -0.10674764 0.28105733 -0.11038899 -0.29410753 -0.08839354 -0.32233492 0.15474536 -0.122583 -0.11915025 -0.0005136594 0.2301083 -0.09602607 0.055966076 0.094286166 0.1480766 0.08822845
38 0.2507345 -0.36241537 -0.031620204 -0.22909842 0.29642808 -0.50747395 0.5141874 -0.06810083 0.18203758 0.17212152 -0.42042354 0.012332577 -0.11291377 -0.42312172 0.33418125 -0.42298123 -0.5629913 -0.31815594 -0.42689672 -0.23822464 0.30503258 0.43806812 0.33752364 0.38730568 -0.15283376 -0.14204489 0.13713513 -0.36780626 -0.03416544 -0.13157347 -0.02871871 -0.45103067 -0.45009813 -0.09900169 0.11063257 -0.0679384 0.1644159 -0.026573261 0.041122884 -0.34076616 0.33794093 0.026311683 0.22443186 0.33091238 -0.044878405 0.09262304 0.038458902 0.12996197 0.2879373 -0.044504166 -0.21063186 0.022306506 -0.107208684 0.09022264 -0.121821396 -0.01696177 0.22323295 0.30876315 -0.082497254 0.15803573 -0.0061167064 0.11495621 0.1470393 0.20039862 -0.2034504 0.057234827 -0.10627126 -0.02545521 0.46752235 0.056345984 -0.15901431 0.2135107 0.04873312 -0.11041721 -0.023685556 0.09523394 0.2288005 0.2528008 0.060544748 0.031124393 -0.13655658 0.006078625 -0.10216021 -0.16317843 -0.20479703 -0.032965183 0.08532796 0.028979493 0.151652 0.20259811 0.16093923 -0.3556928 -0.13572524 -0.28245673 0.20222758 0.043140374 -0.12727825 -0.012672255 -0.10915323 0.06650328 -0.008213217 -0.053000968 0.2876242 -0.054192174 0.1229113 -0.17619745 0.2246475 0.11070099 -0.13728355 -0.25725973 0.0924371 0.06628299 -0.07786266 0.35999823 -0.13820612 -0.3677014 -0.1913271 -0.29807404 0.076632746 -0.18110906 -0.03626445 -0.03977044 0.22991166 -0.05016076 0.03013665 0.12755701 0.07826569 0.11026623
68 0.1529555 -0.11308274 0.05025767 -0.23384815 -0.42569312 0.0076234937 0.37480897 -0.01938066 0.13053492 0.21626955 -0.45971248 0.029184463 -0.1584613 0.06311488 0.024656005 -0.031374726 -0.08313924 -0.29236674 -0.24656492 0.20253527 0.12393561 0.1241695 -0.080858074 0.4157701 0.33730102 -0.30804557 0.035203326 -0.11215244 -0.23895545 -0.3662277 0.062372047 -0.094169445 0.1382104 -0.27528262 -0.101981044 0.027229007 -0.30159754 -0.023021128 0.1611559 0.026953356 0.011170084 0.057139166 0.042690646 -0.0861957 0.16978201 0.05833275 0.021694193 0.11114322 -0.25938672 0.16036613 0.15049717 0.20055538 0.028829953 -0.18426211 0.21489842 0.18333714 -0.2609663 -0.21799745 0.027692644 -0.105611764 -0.017739445 -0.39122403 0.27491254 -0.028691348 -0.0676881 -0.20334174 -0.0358578 -0.009790409 0.09003359 0.07007404 -0.09631298 -0.1884803 0.26838994 -0.18371063 0.014037157 -0.42568496 0.07801348 -0.14299053 -0.078348346 -0.123059586 0.008053174 -0.057727687 -0.007918023 -0.28845462 0.041587103 -0.07967923 0.054940104 0.088238016 0.07799691 0.28837338 0.26105917 -0.031626943 0.067709565 0.41313833 0.040302955 0.2134502 0.091658585 0.21965341 -0.19953972 0.071531475 0.05624024 -0.0011257193 -0.016153576 0.064172134 0.08038323 0.24488826 -0.11958104 -0.06719621 -0.049450897 0.42893305 -0.1610523 -0.03885933 -0.19996631 -0.30983874 -0.192105 0.020933535 0.10931493 0.08230607 -0.05965638 0.37220415 -0.19218044 0.15970202 0.028211264 0.112444386 0.2798653 0.04114348 -0.33721906 0.07999866
35 0.29747298 -0.15341121 -0.1179077 -0.12741989 -0.3953754 -0.09389323 0.43931025 -0.15022008 -0.037913784 0.22257443 -0.32447866 -0.10556029 -0.16062912 0.15243976 -0.044625133 0.10175557 0.2740409 0.010744619 -0.15299992 -0.012058327 -0.03375104 0.23835048 -0.24637146 0.12258203 0.17440198 -0.28569457 0.23603913 -0.17216276 -0.21493527 0.0643977 0.1306533 -0.083263084 0.21421406 -0.3377352 -0.044732 0.05319079 -0.30759025 -0.1553713 0.18694374 -0.20211482 0.13626897 -0.001113668 0.0164002 -0.063576765 0.24565826 -0.025482668 -0.04418935 0.25559825 -0.2904531 0.15775423 0.24066171 0.26071605 0.039453063 -0.14694616 0.47064406 0.28541398 -0.41542217 -0.16567592 0.083649725 -0.153585 0.019527012 -0.54820806 0.6695231 0.021279722 -0.22862728 -0.20391285 -0.18642606 -0.04345303 0.17556147 0.07387806 -0.38646233 -0.10103672 0.11409379 -0.117818065 -0.012570659 -0.34962752 -0.05798929 -0.12975381 -0.051122125 -0.20946188 -0.14144035 -0.006717741 0.23029903 -0.29909468 0.07038884 -0.18551289 -0.077955805 0.20756854 0.14656483 0.4970836 0.31514585 -0.33814418 0.13873194 0.24631356 0.38890123 0.14619038 -0.0005984728 0.2599932 -0.17535579 0.12912032 0.0045611723 -0.17624594 0.16279256 0.12331975 0.22400674 0.39871335 -4.1359133e-05 -0.16176619 -0.066078216 0.34644765 -0.19508432 -0.22598802 -0.3852496 -0.26050553 -0.3472186 -0.43665966 0.06573078 -0.17914696 0.44952914 0.43793958 -0.1992624 0.21640626 0.3313146 0.20262347 0.37539077 0.08881181 -0.2754002 0.27706137
52 0.048374675 0.2007695 -0.28244165 -0.18552445 -0.3093557 -0.21769103 0.36979288 0.0042099687 0.22165649 -0.30811733 0.17882854 0.3781401 0.2602202 0.29609308 -0.4839115 -0.4037278 -0.08458458 0.016228126 -0.5975416 0.32540846 0.36591274 0.024796873 -0.5205285 -0.31666005 -0.29940248 0.4545936 -0.34031194 0.31683782 0.21062401 -0.012894227 0.3965477 0.043868102 0.33547246 0.10124625 -0.27009803 -0.0071361256 0.28060108 0.42484698 0.26495668 -0.053607438 0.2744561 0.31551594 -0.16437274 0.045366023 -0.19576015 0.20338967 0.08617827 0.21611007 -0.16856322 -0.31086627 -0.48447332 0.0799272 0.63535804 -0.44443068 0.8385434 -0.13599113 -0.10166569 -0.47596782 -0.17254291 -0.6233058 0.1797264 -0.26789021 0.05302553 -0.12138375 -0.5909685 0.27105156 -0.16064952 0.1856335 0.026491823 0.20537989 -0.42960566 0.19166034 0.15110654 -0.39417714 0.39662987 0.11468856 -0.20906475 -0.5804868 0.35244706 0.0068583954 0.31721842 -0.12772188 0.40933904 0.06349445 -0.117704585 -0.09543405 0.7978068 0.3168725 0.25523826 0.15838023 0.25642112 -0.163588 0.08907246 -0.17460854 -0.34835687 -0.1155689 0.074101925 -0.26053122 -0.039932303 0.923426 -0.29136842 0.30361262 0.0074668713 0.5313628 0.24671963 0.42977598 0.49417046 -0.18656787 -0.4150397 0.3749394 -0.44315678 -0.41492942 -0.17716336 -0.43007153 -0.69201297 -0.057072733 -0.7081274 0.5074696 0.48884937 -0.22739092 0.13142136 -0.32555124 0.04758364 0.06528284 0.09460663 -0.036809336 0.10749666 0.16149668
24 0.21193902 -0.13695996 0.06934622 -0.103268 -0.48279262 -0.04452124 0.5682357 -0.09861514 0.023459516 0.20174217 -0.26804474 -0.061380647 -0.14824031 0.17152402 -0.074793205 0.13713977 0.25057548 -0.040049743 -0.22383924 0.040617824 -0.044110917 0.18502447 -0.2724316 0.15865494 0.21512115 -0.22903103 0.11582142 -0.21703601 -0.22231075 0.018374963 0.15642399 -0.09526962 0.21549983 -0.31227344 -0.07121487 -0.007153691 -0.25882167 -0.15301968 0.20229237 -0.16221413 0.15842465 -0.030630505 0.040342372 0.0036206155 0.2135462 -0.04867775 -0.01960166 0.31645784 -0.26107165 0.12229521 0.29149738 0.21986245 -0.045658547 -0.15555866 0.3725334 0.29312998 -0.3269362 -0.06298475 0.069790244 -0.13919182 0.03669808 -0.44615227 0.52405024 0.04840208 -0.25965697 -0.12388458 -0.0905074 -0.02630588 0.14567441 0.10271088 -0.3263268 0.045033425 0.053407155 -0.050687946 0.00829705 -0.20570534 -0.11265389 -0.16175081 0.0005301954 -0.14860679 -0.021860166 0.07556714 0.2467248 -0.09390324 -0.03285077 -0.20848529 -0.1698207 0.20226847 0.18855384 0.3049259 0.2702906 -0.27141494 0.12622659 0.14586152 0.4073294 0.03230217 0.12466277 0.27548382 -0.18037637 0.12104063 0.018783147 -0.14350945 0.1950975 0.1739625 0.21996973 0.25840616 -0.04060279 -0.24820286 -0.042105276 0.28092036 -0.23663531 -0.119713336 -0.27051848 -0.15567894 -0.33537343 -0.40321928 -0.086885035 -0.10292117 0.43007264 0.27886623 -0.19822457 0.18354376 0.30478078 0.1981929 0.29342785 0.105649985 -0.15457748 0.26813146
27 0.06318309 -0.049267042 0.04221916 -0.041110862 -0.1928525 -0.039201807 0.23135947 0.058866076 -0.02819116 0.18733652 -0.23445265 -0.028605612 -0.2037333 0.0470641 0.06630617 -0.17603569 -0.04530117 -0.13198091 -0.28750882 0.051213946 0.08306121 0.07149957 -0.07196025 0.27576175 0.23945276 -0.22918965 0.0011274801 -0.14955255 -0.19702943 -0.18650508 0.114322096 -0.22918512 0.034287527 -0.17957143 -0.056738097 0.03440667 -0.1823857 0.027861832 0.27036986 -0.092728466 0.2013744 0.0057477662 0.14019026 0.07093882 0.118936926 -0.13233578 0.061132867 0.16865979 -0.20627303 0.17484148 0.20291106 0.09094372 0.06645544 -0.16742013 0.24018376 0.3084796 -0.31850216 -0.11896407 0.04184375 -0.047362052 -0.06296499 -0.2979754 0.27931046 -0.010404355 -0.10446586 -0.08780548 -0.039937362 0.007319671 0.16627248 0.08844307 -0.17292573 -0.1258739 0.25280103 -0.17122316 0.0010384953 -0.28749713 -0.0082218805 -0.23120895 0.09216054 -0.18698363 0.110322684 -0.105420515 -0.04160522 -0.14974374 0.0274646 -0.07397624 0.20464766 0.08710958 0.13459742 0.33167446 0.13150443 -0.082726866 -0.00050781085 0.3204437 0.078616105 0.15605557 0.111843586 0.27762103 -0.16284747 0.02245837 0.048911743 0.009430815 0.046432365 0.17466478 0.14553516 0.1464581 -0.13775387 -0.13839571 -0.032106783 0.2837251 -0.23071393 0.0709666 -0.06118617 -0.24251533 -0.14806493 0.010742804 -0.122004226 0.122890405 -0.19889599 0.19137657 -0.18564248 0.13294104 0.097838 0.17322282 0.2509666 0.11779405 -0.16933876 0.042430293
17 0.13380292 0.111162 -0.21307237 -0.09638165 -0.27233553 -0.12363344 0.3989121 0.029693143 0.08736664 -0.20305254 0.18281582 0.39473885 0.20660302 0.27051568 -0.33994493 -0.3034033 -0.16671754 -0.0021328419 -0.62095773 0.28778112 0.29693094 0.07066181 -0.60025114 -0.1993278 -0.26816657 0.39878607 -0.36282212 0.12367492 0.04204632 -0.07474038 0.42416885 -0.086337775 0.34225872 0.16510089 -0.2534086 -0.003090988 0.36207858 0.46015137 0.23264644 -0.092591204 0.3087181 0.1804465 -0.18695994 0.05975031 -0.22344875 -0.03567013 0.05831909 0.17188562 -0.12439661 -0.3014341 -0.45487747 0.0386792 0.51163435 -0.42078534 0.8340898 -0.083075255 -0.08263859 -0.3717919 -0.11012197 -0.4415876 0.15196662 -0.15157291 0.030198947 -0.123645104 -0.5591439 0.2956832 -0.1185398 0.15438364 -0.01644738 0.15477575 -0.3938401 0.2635566 0.08368091 -0.39224797 0.35984606 0.19593173 -0.2031807 -0.6040823 0.3329899 0.031062799 0.29441446 -0.05545052 0.4497762 0.26051044 -0.16132325 -0.09239193 0.7440136 0.30854356 0.42223048 0.07309468 0.23144005 -0.21759564 0.12422586 -0.15491715 -0.2480967 -0.20246571 0.16090272 -0.07637409 -0.11916455 0.9478189 -0.1671548 0.31279632 0.07716594 0.5675921 0.2713102 0.42516473 0.39497054 -0.32668573 -0.4349569 0.41943255 -0.5265701 -0.41621763 -0.19782478 -0.51159275 -0.6855645 -0.028145388 -0.8221272 0.5465607 0.54080135 -0.24587205 0.08581002 -0.33254403 0.10614517 0.12506703 0.087231986 0.025510704 0.18302883 0.16991119
42 -0.040749718 0.15752476 -0.0693306 0.12845674 0.5615972 -0.45189926 0.22658125 0.174056 0.18307157 0.2229 -0.25282443 -0.17901719 -0.16249003 -0.1211167 0.3325113 -0.4706043 -0.26339132 -0.16229507 -0.09062602 -0.30267987 0.37544775 0.048566543 0.4681851 0.14227255 0.15297055 -0.22679886 0.037251096 -0.039093167 -0.14175008 0.4504019 0.1773061 -0.041056953 -0.10349366 0.3357706 0.26955584 0.02678194 0.6528675 -0.07328148 -0.117613204 -0.3308515 0.09826797 0.35049886 0.2350858 0.33529964 0.21509463 -0.050467502 0.29067433 -0.07637368 0.33716372 0.22771588 -0.0659045 -0.2475367 0.6496856 0.12706979 -0.16413993 -0.037598014 0.33883935 -0.450193 -0.48886022 -0.32109153 0.3408562 -0.11275191 -0.25710687 0.34633103 0.08726364 0.2588247 -0.56045014 -0.071874864 0.42721543 0.027742531 -0.40134013 -0.18145835 0.22016267 -0.26097387 0.02168638 -0.14281589 0.018871296 0.31402907 -0.2517536 0.37828296 -0.27999476 -0.097048625 -0.13771795 -0.19618377 0.14620815 0.37500423 0.67686254 0.026645983 -0.030601064 0.71283346 0.182773 -0.25207472 -0.2066859 -0.35170594 -0.38970354 0.16358477 -0.45822927 -0.12431027 -0.08406866 0.37517062 -0.15506063 0.23096545 -0.04165003 0.04239593 0.20867118 -0.19179094 0.7969761 0.21697663 -0.2483457 0.31521395 0.3071333 -0.27294743 -0.34983054 0.013580798 -0.6956728 -0.10668384 -0.2673437 0.32948285 0.21886833 0.43901187 0.13595787 0.09367043 0.24943592 0.19050048 -0.03411857 0.14801587 0.2857503 0.564828
51 0.010190651 0.109253235 -0.07820296 0.04442843 0.46654737 -0.56472087 0.36684483 0.0030477308 0.24121828 0.2736943 -0.07962967 -0.0906883 -0.18194024 -0.03678196 0.20578738 -0.39960587 -0.09142241 -0.06055872 -0.02371197 -0.29106984 0.30236575 0.13209704 0.31976888 -0.02515429 0.07718613 -0.25037196 0.11923269 0.03195136 -0.013934638 0.57925344 0.27890906 -0.024102736 -0.06533852 0.14771636 0.14274886 0.020408893 0.50896776 -0.09368544 -0.14809504 -0.32830495 0.1780003 0.4407489 0.27300677 0.21077639 0.1964414 0.059747174 0.32578048 -0.017928477 0.23013918 0.15616289 -0.030523194 -0.041357942 0.53846765 0.10747426 -0.121062145 -0.02658636 0.25437713 -0.24521083 -0.33411485 -0.17290035 0.39337373 -0.24644932 -0.087299354 0.494898 -0.13193437 0.23931529 -0.44482478 -0.027464448 0.4909345 -0.024830256 -0.26804167 -0.08416432 0.2000151 -0.13236314 -0.030524978 -0.15845934 0.14326763 0.38699988 -0.16360812 0.3039183 -0.41561908 -0.016398735 -0.032874327 -0.24863851 0.05177009 0.3664103 0.4424952 0.13295199 0.045553904 0.4232492 0.06603167 -0.23325066 -0.04396646 -0.38846403 -0.11044285 -0.045505054 -0.50308704 -0.34624478 -0.027649106 0.30595684 -0.19514598 0.18722872 0.06413296 -0.023551395 0.23779826 -0.1412132 0.8545829 0.19438769 -0.19924322 0.035905734 0.10385702 -0.3052647 -0.3918776 0.11826039 -0.5874869 -0.14438428 -0.20871119 0.17467494 0.4373965 0.25028998 0.091070294 -0.0474071 0.2976608 0.09521445 -0.036247686 0.17423098 0.18183996 0.5508083
34 -0.06520029 0.052877247 -0.023395985 0.010747012 0.49732783 -0.50220186 0.31625506 0.13827075 0.204408 0.11355626 -0.29347387 -0.13130696 -0.06538428 -0.09344717 0.15367357 -0.31998733 -0.21295716 -0.114416875 -0.010338875 -0.289928 0.34141323 0.022451382 0.50437915 0.03997654 0.046723038 -0.10462165 0.05798456 0.07281948 -0.035566196 0.5084492 0.1051588 0.14115037 -0.113365 0.34980142 0.21872756 -0.036433015 0.6765189 -0.09826778 -0.10955674 -0.30340877 -0.02250679 0.32017574 0.262252 0.35671747 0.16004515 0.09745134 0.23550661 -0.030343391 0.29909134 0.18509747 -0.1283966 -0.2055123 0.67147434 0.12787355 -0.12547338 -0.11960752 0.28591198 -0.43094578 -0.578852 -0.43586087 0.36983833 -0.21819875 -0.18392213 0.37066245 0.03864167 0.20786874 -0.561043 -0.09917735 0.45808735 0.036882482 -0.49435452 -0.14707118 0.16748743 -0.2214083 0.045339815 -0.059331276 0.037790734 0.31863827 -0.2739371 0.3912203 -0.26311675 -0.124595225 -0.08162507 -0.27537218 0.1068785 0.38877168 0.5818407 0.06196261 -0.071542844 0.70939785 0.23073211 -0.30062366 -0.22204857 -0.4461443 -0.34653172 0.22696657 -0.51519203 -0.21633686 -0.0033639402 0.39006087 -0.28185886 0.12868221 -0.029079169 0.0350074 0.18564242 -0.14484002 0.8807153 0.29889017 -0.28295344 0.24794683 0.3323472 -0.34086975 -0.38444743 0.112712674 -0.69315064 -0.28952903 -0.24130373 0.25253862 0.32832554 0.4109026 0.15363213 0.054736387 0.28252414 0.10582413 -0.03463929 0.112654656 0.26190418 0.56942534
33 0.04274213 0.05984157 0.005191806 0.042428687 0.5294207 -0.62877 0.46565118 0.11851768 0.16641122 0.3516994 -0.07092747 -0.118529856 -0.0817137 -0.060932405 0.19335036 -0.40698555 -0.1733175 0.009652463 -0.10145537 -0.32043064 0.3836275 0.20428704 0.30644158 0.09754231 0.010717388 -0.29593965 0.021138862 -0.010981139 -0.103531264 0.5726028 0.31988242 -0.07669819 -0.043827176 0.3450479 0.09065694 -0.015757421 0.5632731 -0.09751519 -0.34668434 -0.3569011 0.10039855 0.41694742 0.28029004 0.09371072 0.12320615 -0.091179006 0.29490057 -0.14128242 0.23856623 0.17619483 -0.07649408 -0.014605712 0.64532447 0.1473173 -0.20702632 0.080787435 0.2946867 -0.27322707 -0.30837074 0.057014186 0.308337 -0.1284623 -0.23093854 0.35487238 -0.08703928 0.17104138 -0.39975947 -0.102921955 0.53448826 0.013569046 -0.26659134 -0.11413554 0.2062005 -0.13520229 -0.04444751 -0.10583369 0.22922565 0.2934396 -0.20109393 0.30910197 -0.43434823 -0.113561876 -0.08685124 -0.28142586 0.08934445 0.42084655 0.5353969 0.16413835 0.20611075 0.6040319 0.1555205 -0.32648933 -0.045170143 -0.40021482 -0.07401836 0.12906481 -0.622115 -0.29001468 -0.008759221 0.34217763 -0.19781218 0.16314945 0.063088864 0.015680851 0.24919802 -0.0770415 0.79960376 0.1357242 -0.1812902 0.09940094 0.10949552 -0.40480477 -0.41207287 -0.1422528 -0.65170574 -0.22733128 -0.216001 0.0553683 0.4925487 0.29217184 0.16575974 -0.06417825 0.47434974 0.028423574 -0.009793289 0.17823488 0.30658767 0.51278687
32 0.12999699 -0.18683954 0.021816483 0.004291926 0.14818868 -0.12685017 0.07178012 0.013983662 0.17723766 -0.029161317 -0.27661288 0.012701735 -0.01722295 -0.35682905 0.22239153 -0.0840781 -0.18928953 -0.24515094 -0.33772558 0.079494126 0.39436108 0.49058104 0.03694635 0.09171555 -0.27069488 -0.13868168 0.0050356863 -0.17195332 -0.07905828 -0.38501087 0.102869704 -0.41543767 -0.19746175 -0.042534694 0.1506792 0.024473052 0.2564922 0.044342324 -0.21086344 -0.21648367 0.28435653 0.24370788 0.020010313 -0.020556215 0.057901096 -0.071990564 0.21413149 -0.14512241 0.25757065 -0.06676787 -0.02922722 0.0927424 0.055948462 0.28233662 -0.10502259 -0.0329216 0.19292088 0.25458413 0.11055064 0.15173781 -0.07220264 0.030904928 0.194572 0.056077804 -0.1757754 0.010530731 -0.07924212 -0.15192004 0.4370422 -0.29531074 -0.17438558 0.2746307 -0.0957095 0.0425778 0.24637671 0.11998213 0.0745056 0.24084501 -0.32693443 -0.093610816 -0.25871858 0.16721076 0.04402631 -0.18353727 -0.24904251 -0.05639356 0.3445876 0.16923502 0.19357696 0.16807458 0.20823042 -0.15233116 0.1293448 -0.21898219 -0.085605815 0.059205875 -0.037348513 -0.056586385 -0.08003849 0.15092702 0.20198435 0.11014308 0.0950575 -0.25601017 0.014970279 -0.058915626 0.027977817 -0.4347165 -0.06369381 -0.24155799 -0.11721334 -0.056374274 -0.081282414 -0.05320416 -0.22486079 0.028940832 -0.08159331 -0.114406005 0.41047704 -0.03892709 -0.1249646 -0.22697075 0.3097698 -0.3521699 -0.073870376 -0.08520013 0.2514231 0.04591383
48 0.20447578 -0.12162092 -0.1498686 -0.031543195 0.264572 -0.09131101 0.058787927 0.008265394 0.09301841 0.02570269 -0.28156745 0.052567214 -0.0035925626 -0.29975712 0.37169972 -0.3100918 -0.2968602 -0.2402438 -0.28608432 0.037387323 0.39125356 0.3957116 0.003603302 0.16000624 -0.18412209 -0.08835188 -0.04431781 -0.29272354 -0.13774037 -0.30752108 0.11518738 -0.46813297 -0.22295392 -0.17653283 0.10545759 0.008462525 0.3562915 0.017289994 -0.053093694 -0.08938558 0.25902787 0.30578095 -0.0071997163 -0.010991453 0.04458848 0.1839906 0.15480171 -0.15117042 0.18922214 -0.1144385 0.04922659 0.11983498 0.23128451 0.22946525 -0.05439637 -0.07897109 0.19051427 0.2319296 0.09960036 -0.006980976 -0.07967905 0.15833063 0.116551824 -0.111948445 -0.10510843 0.16910222 -0.06008689 -0.020862905 0.15597957 -0.19635604 -0.08672405 0.19525984 -0.118599 0.020080345 0.26028228 0.11411128 -0.013545663 0.15274672 -0.20537776 -0.04350595 -0.19764626 0.09269411 0.020269275 -0.2051427 -0.1697941 -0.1019698 0.3995196 0.23107155 0.24508269 0.30197382 0.18283986 -0.1719854 0.06560698 -0.19660926 -0.14685558 -0.011589784 -0.13348596 -0.016432792 -0.14178802 0.2345033 0.18248242 0.25260013 0.1605701 -0.2461982 -0.0031122277 -0.07205247 0.09585422 -0.20924841 -0.07855448 -0.15940346 0.020348223 0.0059562935 0.0010628172 0.050435234 -0.18305054 -0.042766526 -0.008943444 -0.20315494 0.4022781 -0.10362201 0.0480152 -0.14454576 0.19037873 -0.299609 -0.14135902 -0.059070848 0.21849702 0.08558958
67 -0.09055144 -0.14981963 0.092506014 -0.36736125 -0.024150241 -0.122187145 0.22985929 -0.28362313 0.17118436 0.32099596 0.09802373 0.19173068 -0.28221217 0.13150366 0.34427926 -0.19725527 -0.2438656 -0.21519329 0.022011675 0.19839382 0.093205184 -0.15772174 0.009322588 -0.036096193 0.106492035 0.0035224417 0.061047498 -0.16435042 0.019508857 -0.37223747 -0.02808286 -0.051416285 -0.16037393 -0.028971855 0.040245194 0.10790975 -0.1319466 0.064423695 0.18144011 0.26222575 0.01146652 0.314024 -0.006367918 0.059886 0.0827918 0.18986069 0.059291366 0.1817396 -0.08758621 -0.081544474 0.0460373 0.10781642 0.069519795 -0.057023413 -0.11249467 -0.11818245 0.11887209 0.10752486 -0.024453957 -0.17640671 0.28986013 -0.067969 -0.06800903 0.29164618 -0.33561105 -0.13333233 0.069197595 -0.2511225 0.61646396 0.20587718 0.08366301 0.22920552 0.31514624 0.037010666 0.37614197 -0.2441496 -0.2274 0.19400243 -0.06790523 0.017843299 -0.08709665 0.03610554 -0.26258224 -0.3226193 -0.43106106 0.079236634 0.058538325 -0.135376 0.041959222 -0.15946397 0.34316623 0.26494673 -0.12541495 -0.17012927 0.061638337 -0.11687003 0.2161815 -0.27197102 0.06718713 -0.3221335 0.14327715 -0.05125323 -0.07798802 -0.023555988 0.089263506 -0.3470398 0.10642189 -0.31446362 0.20801128 -0.3592797 -0.3671128 0.14120534 0.022097325 0.3013667 -0.19480914 0.37367228 -0.1360166 0.053650532 0.08534557 -0.2559658 -0.2594045 -0.17543948 0.06531514 -0.035287026 -0.013084813 -0.012847295 0.18243499 -0.09006006
12 -0.06664653 -0.1252498 0.036234047 -0.2942655 -0.014435498 -0.08018644 0.10269796 -0.30980763 0.12208085 0.33501372 0.15002194 0.17280903 -0.33665216 0.09423922 0.41028085 -0.1818079 -0.25359344 -0.2261592 -0.08580293 0.2257939 0.19834056 0.017303484 -0.119223356 -0.028711746 0.036489982 -0.0734378 0.046481807 -0.19197302 -0.033401035 -0.46799675 0.058297735 -0.17277919 -0.1729634 -0.07582013 0.055445634 0.1611499 -0.102375515 0.15906498 0.2002732 0.28529167 0.11695776 0.3024539 0.010370938 0.035656724 0.10455929 0.17701268 0.06700954 0.074586645 -0.12169096 -0.12780742 0.040811896 0.14107375 0.08247778 -0.06387591 -0.12399713 -0.15519336 0.13839108 0.105311014 0.037840556 -0.077740625 0.2885629 0.037511274 -0.09692094 0.22443521 -0.3174185 -0.16919838 0.10780052 -0.29360086 0.6537753 0.1457984 0.12341445 0.31793252 0.29939762 0.024178099 0.4662734 -0.2529144 -0.22142385 0.2143585 -0.11684771 0.011563212 -0.11733242 0.12263503 -0.23323086 -0.3057204 -0.4926793 0.051184647 0.07212112 -0.1703501 0.02908655 -0.19289818 0.38528314 0.28264835 -0.06881009 -0.22144113 0.02538274 -0.19576845 0.2178745 -0.23914133 0.04612283 -0.3399448 0.1613308 -0.022096809 -0.09027428 -0.029157687 0.049249414 -0.3679226 -0.011079619 -0.40398106 0.26677486 -0.4287508 -0.4188692 0.1320966 -0.0075749517 0.2072071 -0.19372882 0.47808346 -0.19752334 0.1200622 0.10975923 -0.2579339 -0.2942706 -0.20572183 0.08513891 0.0028092137 -0.041074794 -0.0015153092 0.19277725 -0.046064265
37 -0.3311604 -0.2585018 0.19992554 -0.27788198 0.3478376 -0.787158 0.55985236 -0.17874242 0.72100437 0.695576 -0.06726704 0.3228082 -0.21969378 -0.3541401 0.2102668 -0.56732655 -0.3070575 -0.21422723 0.13256009 -0.55876714 0.11110053 -0.031709068 0.46783414 0.13331035 0.21380302 0.14387827 0.54619557 -0.12438821 0.32115713 0.2622091 0.077685975 0.011118693 -0.05303862 0.20478727 0.3526957 -0.11007307 0.036246635 -0.13402055 0.08169043 -0.13634482 0.1525034 0.672415 0.23464021 0.366823 -0.12547499 -0.24247207 0.11288393 0.47441095 0.28932992 0.0627473 -0.33146527 0.030564215 0.40433893 0.22954044 -0.5031878 0.23205443 0.39573643 -0.048394915 -0.46370673 0.09887123 0.28624243 -0.49487042 -0.25343612 0.69693696 -0.6554751 0.22521314 0.033353265 0.27839714 0.49872068 0.5384641 0.03686189 0.0868136 0.50645804 0.2009533 -0.025240323 -0.2717573 0.3398411 0.17472818 0.039742872 0.207941 -0.5086199 -0.35102528 -0.23746532 -0.5555347 -0.21593438 0.2033995 0.4194168 0.2840605 0.38966507 0.53466666 0.21409911 -0.25232124 -0.32865524 -0.071211375 0.16166048 -0.18049423 -0.029809149 -0.19306402 -0.26769614 0.2564604 0.30086565 0.16681693 -0.11521944 -0.038909182 0.7452819 -0.01850246 1.0344392 0.21641923 -0.42670238 0.39210126 0.02228199 -0.1850786 0.057246488 0.17733401 -0.38260093 -0.05913503 -0.0103046885 0.029353771 0.0045711314 -0.1396113 0.16316985 -0.17525086 0.20781623 0.16484202 0.16728845 -0.051645044 -0.16266479 0.275362
